<?xml version="1.0"?>
<opencv_storage>
<my_svm type_id="opencv-ml-svm">
  <svm_type>EPS_SVR</svm_type>
  <kernel><type>LINEAR</type></kernel>
  <C>1.</C>
  <p>1.0000000000000001e-01</p>
  <term_criteria><epsilon>1.0000000474974513e-03</epsilon>
    <iterations>1000</iterations></term_criteria>
  <var_all>1764</var_all>
  <var_count>1764</var_count>
  <sv_total>1</sv_total>
  <support_vectors>
    <_>
      -1.89267173e-01 -1.81620777e-01 -4.03665900e-02 -9.46050212e-02
      -2.42953412e-02 1.34808630e-01 -3.48165594e-02 1.06481828e-01
      -6.23074546e-02 -8.82431567e-02 -2.76105553e-02 6.34632865e-03
      4.32984494e-02 -1.24408156e-01 -8.39968547e-02 -4.22903374e-02
      1.01671249e-01 4.61245626e-02 6.44451752e-02 -9.29281265e-02
      9.55708772e-02 -1.20141618e-01 -8.44732150e-02 -9.91766229e-02
      -1.80669516e-01 -1.92267448e-02 2.83649638e-02 2.00463589e-02
      9.03087780e-02 -1.45605460e-01 -1.75403003e-02 -2.11056639e-02
      -1.44959733e-01 9.40116048e-02 -1.93412825e-02 9.99686643e-02
      1.11430801e-01 1.33152083e-01 -5.61640821e-02 -2.61836741e-02
      1.56145558e-01 1.17996737e-01 3.38438861e-02 1.01851001e-01
      1.05811328e-01 3.37862410e-02 4.42590863e-02 1.32882953e-01
      -2.23141424e-02 7.07694143e-02 -6.30632788e-02 -3.81838717e-02
      -8.32609236e-02 7.73218870e-02 5.43189943e-02 2.50315536e-02
      6.84328675e-02 -2.55651101e-02 2.57519513e-01 2.43714415e-02
      6.30685613e-02 -9.08816680e-02 -3.78721058e-02 -2.65004393e-02
      5.12404926e-03 3.63012739e-02 6.36510253e-02 -9.58083384e-03
      1.16481058e-01 1.71114042e-01 8.81115496e-02 4.95383926e-02
      5.78093119e-02 4.13989946e-02 -7.76816905e-03 3.19794528e-02
      -1.54168874e-01 -4.97409180e-02 -5.73640764e-02 -7.65201524e-02
      2.05529295e-02 -5.63435443e-02 4.82084639e-02 -6.74712658e-02
      1.55277625e-01 -6.26658201e-02 -9.02732164e-02 4.83417958e-02
      -1.40760005e-01 7.41538480e-02 -4.98304106e-02 2.32477769e-01
      -9.70907696e-03 -2.85880119e-02 6.47691563e-02 4.47198190e-02
      -1.31818622e-01 -6.60227090e-02 -8.11246876e-03 4.23052087e-02
      1.22345611e-01 -1.61129653e-01 -1.26572981e-01 -1.02034323e-02
      6.23992421e-02 1.16537344e-02 4.89776991e-02 2.74226516e-01
      -1.11040827e-02 -1.59780189e-01 8.20356011e-02 9.36782211e-02
      -2.34878529e-02 -7.81336892e-03 2.38066494e-01 -5.35399728e-02
      5.97395711e-02 1.07324831e-01 7.40469396e-02 2.59664319e-02
      -1.28304884e-01 -7.08751827e-02 2.62348559e-02 1.98399618e-01
      5.96615225e-02 -6.29153997e-02 -5.50855249e-02 4.80521955e-02
      3.60275172e-02 -3.37537527e-02 -3.91361900e-02 -2.67452188e-03
      -1.61790475e-01 -1.51035031e-02 -5.01417816e-02 1.10183708e-01
      5.36133302e-03 1.13340788e-01 -1.18895002e-01 9.24018696e-02
      1.24348886e-01 -2.61531938e-02 -9.34320763e-02 -6.14202805e-02
      8.47675800e-02 -1.86207015e-02 -2.00145934e-02 4.21885997e-02
      8.46309885e-02 8.09977949e-02 8.10563937e-02 -7.73944706e-02
      9.48620513e-02 7.61323571e-02 1.23719722e-01 1.39003145e-02
      5.09178527e-02 -8.53366628e-02 1.26430154e-01 -7.64024407e-02
      -6.29348978e-02 -7.02387840e-02 7.83581510e-02 9.56614763e-02
      4.17900980e-02 7.36517981e-02 -4.91930358e-02 -2.02204660e-02
      1.00949302e-01 -1.07276954e-01 3.27373482e-02 -1.30725026e-01
      4.58200052e-02 3.88066508e-02 3.73826623e-02 -1.97926223e-01
      -2.16543749e-02 6.61188662e-02 8.03726017e-02 1.00994848e-01
      1.24685399e-01 4.09259684e-02 -8.60485435e-02 -3.08101997e-02
      -1.89870391e-02 2.02071398e-01 -2.15374585e-02 3.63431359e-03
      -7.78634325e-02 4.18303870e-02 -3.88918482e-02 8.63420516e-02
      6.60472969e-03 -1.07673213e-01 -3.27137969e-02 1.04903109e-01
      -2.16571316e-02 -1.80114210e-01 -1.18271917e-01 1.75945945e-02
      6.95438311e-02 1.32039875e-01 -1.60986818e-02 -3.36870216e-02
      -8.34671333e-02 -5.68004958e-02 -8.46722573e-02 -5.12755774e-02
      2.43474208e-02 1.43369466e-01 -1.23664141e-02 -7.33252615e-02
      -4.30999137e-02 7.77091309e-02 3.23553532e-02 3.02684284e-03
      -6.91476017e-02 -1.20542511e-01 -1.41522229e-01 -5.14766797e-02
      1.44609556e-01 2.54601031e-03 -1.20222330e-01 1.00063741e-01
      1.63037643e-01 -3.95339308e-03 -6.17542192e-02 -9.33367759e-02
      -9.16870460e-02 9.82058942e-02 5.36815412e-02 -5.27949743e-02
      1.08304620e-01 -2.81464130e-01 3.24984565e-02 7.69031867e-02
      -8.76130071e-03 -1.91477817e-02 4.19054665e-02 5.98383136e-02
      -1.47455065e-02 -1.53928837e-02 7.01986700e-02 6.89619109e-02
      -2.53174659e-02 -5.76439351e-02 -6.09422177e-02 -6.12542443e-02
      1.33472877e-02 -4.53145169e-02 -2.08842140e-02 1.15874618e-01
      -2.90066153e-02 3.73302214e-02 1.09590599e-02 1.52242273e-01
      2.11379558e-01 1.68949291e-01 5.12783490e-02 1.23375036e-01
      -8.18942785e-02 2.05060486e-02 1.11928523e-01 -8.39324519e-02
      2.57131942e-02 1.94488987e-02 -2.46983934e-02 -1.31276533e-01
      -3.26579735e-02 7.74344504e-02 3.27833602e-03 1.26585469e-01
      8.47432464e-02 9.54485312e-02 1.39328316e-02 7.69240707e-02
      -1.01061895e-01 -3.20459381e-02 -9.65246651e-03 7.06936866e-02
      6.32468313e-02 -2.40146369e-02 -1.66063264e-01 -1.03588350e-01
      -3.71893793e-02 9.83947739e-02 5.34083024e-02 1.77817438e-02
      -2.03292891e-01 -7.30269775e-02 -6.56066556e-03 -4.56605777e-02
      -6.67043254e-02 -6.04800992e-02 6.27290830e-02 -9.72596835e-03
      -9.92127880e-02 -5.95230274e-02 3.67617682e-02 6.36490881e-02
      7.33948201e-02 1.48244649e-02 -4.55622710e-02 -1.20671885e-02
      1.54522762e-01 4.15601321e-02 4.33587320e-02 6.15034737e-02
      1.43540785e-01 -3.37416343e-02 -1.97547480e-01 -1.04071856e-01
      5.87745057e-03 3.77231976e-04 1.58166345e-02 5.43674827e-02
      1.03246070e-01 -5.63895255e-02 1.02000117e-01 7.34637817e-03
      -8.87141284e-03 -1.16018159e-02 -5.11700250e-02 -5.93886413e-02
      7.51022026e-02 -4.76058610e-02 -1.25591874e-01 -5.89165501e-02
      -7.09081367e-02 -7.98123702e-03 7.71154240e-02 -6.17510581e-04
      -9.96980146e-02 -1.08124085e-01 3.44135985e-02 -6.31828085e-02
      4.07355949e-02 -2.51822174e-02 8.72947350e-02 7.33582629e-03
      -1.32591620e-01 2.12207325e-02 -2.00709298e-01 7.18934985e-04
      6.33342639e-02 3.92397977e-02 6.66717365e-02 -8.26752558e-03
      1.37880528e-02 5.12582809e-02 -1.59212083e-01 1.24286078e-02
      -4.97988723e-02 1.12208426e-02 -3.34934704e-02 1.49572134e-01
      -2.03447454e-02 2.60996278e-02 3.30943279e-02 -4.13365364e-02
      1.14498427e-02 -1.31797403e-01 -4.18963842e-02 8.28895718e-02
      -1.38962090e-01 7.66083878e-03 -8.37852657e-02 1.25468314e-01
      1.29556194e-01 -9.76920873e-03 -1.91696763e-01 1.89691901e-01
      -8.03057756e-03 3.59010622e-02 -8.54608119e-02 1.09864343e-02
      1.05355762e-01 -1.71751436e-02 -1.07675344e-01 -7.69423917e-02
      1.69807076e-02 4.99963015e-02 9.11485753e-04 -8.86892676e-02
      -1.22988224e-01 -4.00769003e-02 -8.34427476e-02 8.18350837e-02
      7.05357119e-02 -1.46648258e-01 6.21800646e-02 -5.12598082e-02
      -1.52117327e-01 -1.80920698e-02 -1.01113431e-01 1.99852102e-02
      -9.77069587e-02 -6.09738529e-02 5.79867624e-02 -3.98374274e-02
      2.53465027e-03 1.05496161e-02 -4.36302535e-02 8.41918811e-02
      8.99471417e-02 -7.81055018e-02 -3.62199382e-03 -2.00525075e-01
      -2.31485888e-02 3.44857983e-02 1.15972109e-01 -3.25813144e-02
      1.87771097e-01 1.22526281e-01 1.32689714e-01 -4.49516028e-02
      -1.31515160e-01 -1.78250358e-01 -1.45923734e-01 -5.13303354e-02
      -7.22708032e-02 -5.06138541e-02 1.59014910e-01 1.11474857e-01
      -3.08533963e-02 3.83031531e-03 3.75587381e-02 4.87816222e-02
      -7.30721876e-02 6.48372397e-02 4.66482248e-03 -2.60339193e-02
      -1.20189048e-01 -5.97903971e-03 2.90249772e-02 -3.08834333e-02
      7.81430155e-02 -5.92979323e-03 -1.39961308e-02 1.11680984e-01
      1.46907181e-01 -8.33972692e-02 2.00422257e-02 7.88205191e-02
      -1.70969516e-01 4.63323388e-03 3.49994726e-03 -8.74818563e-02
      -5.36951125e-02 -7.04149306e-02 3.97756286e-02 7.80833885e-02
      1.56276245e-02 1.20507786e-02 5.24026789e-02 -3.10987998e-02
      -9.52626392e-02 -7.68489167e-02 7.26005882e-02 -1.74704958e-02
      -1.81937888e-01 -7.01970756e-02 5.26994132e-02 7.21723735e-02
      2.53157523e-02 -1.43629178e-01 -2.29307041e-02 -8.44349433e-03
      -5.79954535e-02 -9.55351442e-02 6.16937242e-02 -2.95687262e-02
      -5.70333824e-02 1.25107497e-01 -9.52603016e-03 8.34130272e-02
      -9.35382172e-02 4.47758771e-02 5.60860001e-02 3.84100974e-02
      1.71292081e-01 -1.16182603e-01 3.44403796e-02 2.21733525e-01
      7.44810253e-02 -1.06311455e-01 -3.60662714e-02 -3.04932557e-02
      -5.34020327e-02 1.58565473e-02 -3.26563977e-02 -9.62566286e-02
      -6.00124113e-02 -7.96943810e-03 -2.15351298e-01 1.41564891e-01
      7.96071067e-02 -6.54252768e-02 4.66140769e-02 1.84899256e-01
      1.24143228e-01 4.37069871e-02 -1.07931942e-02 -4.14461270e-02
      1.68813318e-02 1.18847620e-02 -7.68207386e-02 -1.10519022e-01
      -5.06068952e-02 -4.87376526e-02 -1.03635946e-02 1.16954662e-01
      1.20127343e-01 5.38702160e-02 -3.83852273e-02 1.09328441e-01
      6.53752163e-02 5.98407350e-02 1.15464658e-01 1.68610349e-01
      6.54654279e-02 -6.74875081e-02 9.96784344e-02 -7.30279908e-02
      -2.99059495e-04 1.37520611e-01 -6.84045851e-02 -6.22114353e-03
      -2.79673710e-02 1.05103500e-01 -1.28401279e-01 -7.01146498e-02
      1.29531682e-01 3.43768112e-02 9.32863951e-02 6.26649559e-02
      1.91632494e-01 2.72141304e-02 4.27213013e-02 1.65432721e-01
      -4.59946766e-02 2.74900794e-02 5.83478324e-02 -5.97715266e-02
      -7.79745728e-02 2.23281205e-01 1.48235545e-01 9.70106348e-02
      -1.00469053e-01 -2.03128252e-02 1.02236964e-01 6.26433492e-02
      8.14572945e-02 -6.82196990e-02 7.29372445e-03 1.36189356e-01
      -5.27439266e-03 5.86829223e-02 -6.13470823e-02 7.93790296e-02
      -6.42947853e-02 -5.14257401e-02 8.86003822e-02 8.61955732e-02
      -1.58036783e-01 1.56894010e-02 5.30808121e-02 -8.09626058e-02
      9.97740123e-03 -7.84263685e-02 -1.52730301e-01 -5.69437966e-02
      3.35130505e-02 -6.85174242e-02 7.22608641e-02 1.11572079e-01
      -9.60606113e-02 -9.06323865e-02 -1.36113144e-04 8.70368779e-02
      -1.05695479e-01 -1.24386236e-01 -9.35087055e-02 2.10757907e-02
      1.73719585e-01 4.65300307e-02 1.02676041e-01 -1.24465879e-02
      1.70016810e-01 -7.91563764e-02 7.81500489e-02 2.15620901e-02
      2.37108409e-01 1.57228827e-01 -7.55732432e-02 -1.07800856e-01
      4.78065200e-02 -4.32528257e-02 4.44369167e-02 6.43590018e-02
      3.58045250e-02 -5.12587316e-02 1.59488603e-01 1.37926623e-01
      -9.23505872e-02 2.62714382e-02 -9.03668404e-02 -1.55375730e-02
      9.56786703e-03 -4.32735607e-02 -1.79957971e-01 1.49007156e-01
      7.45949671e-02 4.26675528e-02 8.27590227e-02 4.59437110e-02
      -6.33062944e-02 1.49553478e-01 7.42135793e-02 1.63038760e-01
      9.92663950e-02 -1.28950309e-02 2.03863923e-02 1.23753458e-01
      1.18335336e-01 3.38571258e-02 6.62309676e-02 8.56337994e-02
      1.38325125e-01 -2.16443732e-01 -5.48085645e-02 3.06757521e-02
      -4.32157181e-02 -2.58764595e-01 4.73396890e-02 8.22168589e-02
      -1.00733563e-01 -4.56492268e-02 -4.24038246e-03 -8.31889957e-02
      -6.08912669e-03 6.66829571e-02 -6.53401837e-02 -3.94050144e-02
      -1.36013050e-02 4.94792648e-02 -1.44561797e-01 -1.31725773e-01
      -2.90590413e-02 -9.08792466e-02 -6.69497922e-02 -7.50795454e-02
      -1.64244905e-01 5.23674004e-02 1.08184502e-01 1.76690146e-01
      -2.28033103e-02 7.00204596e-02 -7.16629475e-02 9.54590514e-02
      -7.81282261e-02 2.42090481e-03 2.66900510e-02 -1.02474667e-01
      -1.57280475e-01 -1.57465383e-01 -8.65988135e-02 -9.34639201e-02
      -1.26601905e-01 8.37504640e-02 1.17669087e-02 -9.45025608e-02
      -6.27103969e-02 -6.74876124e-02 7.97469243e-02 -6.41337968e-03
      -4.21490371e-02 -9.73546803e-02 9.57072452e-02 8.91025513e-02
      -1.74615890e-01 -4.76798303e-02 -3.20405923e-02 -9.13725346e-02
      -4.75361347e-02 -1.29197821e-01 -2.17211545e-02 -1.17858984e-01
      -1.36996627e-01 -7.16430098e-02 -2.66266800e-02 1.95707083e-01
      2.52997950e-02 -4.92843054e-02 -4.54860441e-02 -1.21143302e-02
      3.13245803e-02 4.31706710e-03 6.00905381e-02 1.12575972e-02
      4.58843745e-02 1.17759362e-01 1.25678778e-01 -6.43874034e-02
      1.58480451e-01 1.08945511e-01 -6.87204376e-02 -5.98048717e-02
      6.98874965e-02 5.24081774e-02 9.25778002e-02 -1.56725869e-02
      1.23098409e-02 1.04789101e-01 -1.05731390e-01 -4.09887731e-02
      -1.65810272e-01 1.72318876e-01 1.63153447e-02 -5.66011816e-02
      -4.75132205e-02 -3.64426412e-02 -4.67950180e-02 1.56501904e-01
      -9.61226877e-03 9.32259038e-02 6.64781854e-02 1.07847050e-01
      1.23186514e-01 -1.26924515e-01 -1.27091361e-02 -1.28264666e-01
      2.34322972e-03 -8.95745382e-02 -2.82490589e-02 4.60816361e-02
      -1.51136676e-02 8.09075534e-02 3.39765921e-02 1.20752409e-01
      8.18102211e-02 -1.96692366e-02 1.13207504e-01 5.04685380e-02
      -3.42357382e-02 -2.66605848e-03 -1.09241158e-02 1.09993197e-01
      1.82879776e-01 4.66299094e-02 -1.16922706e-02 -1.23428591e-01
      -1.07573569e-02 4.68258969e-02 -9.14580841e-03 -6.91585466e-02
      -4.53934968e-02 5.40309809e-02 1.72015596e-02 -6.41988739e-02
      -1.15820505e-01 1.45531418e-02 -9.35500767e-03 -7.07431212e-02
      5.53518012e-02 -9.68253165e-02 6.88344613e-02 -8.05093497e-02
      -5.60349301e-02 -7.24741891e-02 -2.25073099e-02 1.65199637e-02
      9.54082608e-02 1.98678374e-02 -5.29638352e-03 1.20962262e-01
      6.07922971e-02 2.75784929e-04 3.64419296e-02 1.51441142e-01
      -5.08469492e-02 -1.32181197e-01 -2.78625973e-02 5.20636700e-02
      6.56781904e-03 -1.62822176e-02 1.08174784e-02 6.53841048e-02
      1.23095773e-01 -7.19617978e-02 -4.48575057e-03 6.21986436e-03
      7.66969994e-02 -8.94560888e-02 -1.99088221e-03 -1.85762122e-01
      7.91927353e-02 -2.44445149e-02 2.11499184e-02 -5.57359681e-03
      -1.59623504e-01 4.90342416e-02 1.44127727e-01 4.79002930e-02
      1.15665711e-01 4.59547006e-02 -1.10226169e-01 -1.92958161e-01
      -2.35982202e-02 -2.12044731e-01 -2.98507642e-02 4.28026263e-03
      1.73370183e-01 -7.65993893e-02 2.28476934e-02 -1.65902358e-02
      -1.39899682e-02 1.36699583e-02 -5.19206785e-02 -6.19108044e-02
      1.23433061e-01 1.72490999e-01 1.77681372e-02 -1.01296805e-01
      3.35864909e-02 -1.19983003e-01 -4.42516208e-02 -1.53480843e-01
      -1.34301074e-02 -1.53812990e-01 -1.60746500e-01 5.24294078e-02
      7.56815746e-02 2.09488705e-01 3.04471180e-02 9.65194851e-02
      1.34176701e-01 -2.22772676e-02 1.56330794e-01 4.33308482e-02
      1.22110844e-01 1.40257224e-01 1.43135205e-01 1.23501472e-01
      -1.49497017e-01 -1.03122525e-01 1.36408404e-01 7.79313743e-02
      -1.57959908e-01 -5.24626561e-02 2.15458199e-02 6.62363619e-02
      -6.86497688e-02 -9.46720466e-02 -1.42778223e-02 -1.42967865e-01
      5.01932651e-02 5.07178791e-02 8.61441866e-02 -1.09546334e-01
      1.76528558e-01 7.94564113e-02 -1.17859989e-02 1.27104133e-01
      -6.81246817e-02 1.76380947e-01 -7.33520538e-02 -1.51586905e-01
      1.19757488e-01 -1.10688567e-01 -5.55844512e-03 1.74056903e-01
      -2.33794618e-02 -9.31989495e-03 2.00158060e-01 2.72823237e-02
      2.02847216e-02 -6.11782931e-02 4.05438729e-02 -4.83264662e-02
      1.46985769e-01 -6.04193732e-02 6.04904890e-02 6.06682003e-02
      -4.05275188e-02 -9.38956216e-02 -1.60443708e-01 -1.80332065e-01
      -5.23917191e-02 -6.24021180e-02 2.23080546e-01 9.71601680e-02
      1.83323428e-01 2.75232214e-02 -8.73930566e-03 1.35269240e-01
      1.28359601e-01 -2.18142439e-02 -1.68944653e-02 2.62348186e-02
      1.05092652e-01 -1.04071349e-02 -6.02632836e-02 -4.90421988e-03
      1.32017121e-01 1.46459460e-01 -9.57514998e-03 6.37752488e-02
      3.52527238e-02 -9.33043659e-02 -6.42573386e-02 -3.50423642e-02
      1.85888428e-02 8.43595043e-02 6.02363497e-02 -1.03553019e-01
      2.33371034e-01 -8.29363987e-02 -4.71290462e-02 1.73475351e-02
      1.02621593e-01 5.66791371e-03 -5.41640297e-02 4.98194471e-02
      1.54592013e-02 4.31573987e-02 -7.27321506e-02 8.15344378e-02
      -4.65804413e-02 7.02885315e-02 -3.60306702e-03 8.25640261e-02
      -6.86485618e-02 2.02867240e-02 3.80947553e-02 2.78651752e-02
      -5.90984449e-02 9.22978818e-02 6.34164214e-02 -1.40867364e-02
      6.24275766e-02 -5.61526231e-03 -1.17557965e-01 -1.82254408e-02
      3.05167609e-03 1.09005652e-01 8.09821859e-02 -9.76837724e-02
      -8.69897902e-02 2.44336240e-02 -1.95743404e-02 1.00411316e-02
      1.47042545e-02 -6.82489052e-02 6.65815324e-02 1.29606739e-01
      -1.30949825e-01 -1.74767394e-02 -5.89977279e-02 9.10694376e-02
      2.74147792e-03 3.62205841e-02 1.08250789e-02 2.39341669e-02
      -3.84320840e-02 4.00034040e-02 -1.54034719e-02 8.40409771e-02
      1.04232408e-01 -6.00769855e-02 1.05842493e-01 -1.21055534e-02
      -1.26044214e-01 -1.63844228e-01 1.38897061e-01 5.14492542e-02
      8.72756615e-02 1.37444884e-01 -1.47114739e-01 7.43127540e-02
      -4.98927161e-02 -1.02750540e-01 4.16076593e-02 -4.60934713e-02
      7.71846175e-02 -4.27616611e-02 7.54350424e-02 -1.19690716e-01
      1.76703352e-02 -4.59570587e-02 6.73182309e-02 -4.48346063e-02
      5.92796765e-02 4.99405973e-02 -1.68299422e-01 2.64884401e-02
      9.04484317e-02 -1.36102885e-02 -1.03039734e-01 2.01035459e-02
      1.96852162e-01 -5.83457984e-02 6.76281229e-02 -1.24228954e-01
      2.61772480e-02 -7.66983032e-02 9.65409726e-02 -2.07322324e-03
      5.10032736e-02 -1.06800333e-01 -2.37299297e-02 1.94878764e-02
      -4.29193638e-02 1.18196853e-01 -5.35652274e-03 1.40929809e-02
      -2.61824653e-02 -1.55062124e-01 -4.09484170e-02 6.33382127e-02
      -2.22600140e-02 2.02760343e-02 1.19542237e-02 -2.72374135e-02
      8.43721256e-03 -7.63497278e-02 1.46327645e-01 -3.14757861e-02
      3.74984145e-02 -1.82305396e-01 -2.02794001e-02 -1.43923834e-01
      -1.27596617e-01 -1.55069139e-02 6.13545850e-02 -6.31737486e-02
      -1.14779165e-02 -4.94345650e-02 1.63456604e-01 1.55240327e-01
      -1.12123139e-01 -4.19834256e-02 -4.68291119e-02 7.19583128e-03
      4.08677664e-03 1.42175481e-02 -1.83793958e-02 -1.12981368e-02
      -9.72610898e-03 -3.54451314e-02 -1.36633173e-01 -5.73844388e-02
      4.38020751e-02 -1.04512228e-02 -1.27234668e-01 8.49659368e-02
      -2.98116028e-01 -8.43701288e-02 1.95771605e-01 -3.24746966e-02
      -6.23985231e-02 1.60790145e-01 -5.08734062e-02 -1.03783205e-01
      -9.44865867e-02 -1.01326488e-01 1.00186341e-01 -3.51515226e-02
      -1.37551174e-01 -6.81512877e-02 -2.69228201e-02 1.19273007e-01
      7.28179961e-02 -1.02373108e-01 4.94764037e-02 -8.00807402e-02
      -2.68616155e-02 1.00331292e-01 -2.51548551e-02 -3.58399726e-03
      1.22552902e-01 -1.17207944e-01 -3.64384092e-02 -2.14078669e-02
      -1.27203017e-01 2.64372528e-02 -2.67933831e-02 8.35834816e-02
      3.33219707e-01 -9.88560542e-02 -5.18583832e-03 1.08456455e-01
      1.67743452e-02 -6.23210035e-02 5.71269449e-03 -5.81375472e-02
      6.04006127e-02 -5.79075143e-02 -1.29044922e-02 -6.61363304e-02
      -1.33016899e-01 1.66241586e-01 1.40462652e-01 -7.44490474e-02
      -1.51510388e-02 -8.80566537e-02 1.55086983e-02 -1.29556835e-01
      -7.13287368e-02 -2.35225949e-02 3.54264164e-03 -1.72648787e-01
      9.98402461e-02 -1.08037367e-02 -2.13973243e-02 -3.52186173e-01
      -1.02364458e-01 -3.23022692e-03 6.55925125e-02 -6.91280439e-02
      9.35488641e-02 -6.45219684e-02 4.94587906e-02 9.02522951e-02
      1.26378611e-01 4.79384884e-02 -2.77667083e-02 -7.33748376e-02
      -3.73816416e-02 -7.98567310e-02 -1.24895528e-01 9.58402157e-02
      5.97196110e-02 9.81459543e-02 5.07340953e-02 5.32560386e-02
      3.05224583e-02 -1.15778908e-01 -7.78775988e-03 -3.29474509e-02
      -6.07040301e-02 1.93275347e-01 -7.31230974e-02 5.53446300e-02
      -1.68776199e-01 3.93204428e-02 -1.39002278e-01 -5.10453545e-02
      -1.06637254e-01 2.86963843e-02 8.29523429e-03 -4.38024029e-02
      9.21696648e-02 -6.36750385e-02 -6.88957125e-02 9.25549641e-02
      1.55453905e-01 -2.73353066e-02 2.13129465e-02 -4.48016077e-03
      1.37978122e-01 5.69916181e-02 7.60852173e-02 1.86053701e-02
      5.74785098e-02 3.75412777e-02 -7.77942315e-02 1.58687219e-01
      -1.74866728e-02 -3.04163136e-02 7.83147216e-02 1.23308192e-03
      2.09419221e-01 2.23519802e-02 -1.50128733e-02 -5.27021065e-02
      3.24437916e-02 -4.44125421e-02 1.41656976e-02 -3.97790559e-02
      -2.88440585e-02 1.78829525e-02 -1.53621942e-01 -1.36654258e-01
      -5.17647117e-02 6.78541735e-02 -1.07338712e-01 2.99811251e-02
      7.68795088e-02 -2.11516589e-01 7.50455866e-03 -8.16494972e-03
      -9.78150070e-02 2.12758798e-02 4.44153547e-02 2.54836027e-02
      -2.38627288e-02 -6.74999133e-02 -3.46232951e-02 1.10095702e-01
      6.52232692e-02 -2.19643507e-02 5.96716143e-02 -7.27801844e-02
      1.31944820e-01 7.80765936e-02 4.37057540e-02 2.61589605e-02
      -1.45317957e-01 -8.85241032e-02 1.72338560e-01 -6.76253885e-02
      1.39220050e-02 -1.02212973e-01 -4.62548919e-02 5.75991953e-03
      5.04605770e-02 7.84650445e-02 5.38998209e-02 2.39565480e-03
      9.86759737e-02 1.46426573e-01 6.55910447e-02 -3.44190933e-02
      5.57043292e-02 -1.21052340e-01 -1.06915191e-01 1.03906915e-01
      -1.03944540e-01 -1.12277776e-01 -2.27527507e-02 -7.78682902e-02
      1.21050142e-02 1.15294293e-01 -2.56916769e-02 -1.36869118e-01
      -1.68375671e-01 2.60482460e-01 -2.58246381e-02 -5.74315786e-02
      6.42764643e-02 -1.37692437e-01 4.78942655e-02 -1.67929828e-02
      3.01526990e-02 1.71121245e-03 -4.73498320e-03 -1.44409463e-01
      -8.91558453e-02 -4.12986428e-02 -2.25277338e-02 6.19663261e-02
      -1.54158711e-01 3.94591391e-02 -2.24623140e-02 6.85909614e-02
      -5.98590970e-02 1.44988364e-02 -1.37141934e-02 -1.52744442e-01
      3.16860192e-02 -1.41419619e-01 4.01304513e-02 -6.05415739e-02
      -1.43987071e-02 4.96023111e-02 2.51087211e-02 3.42832580e-02
      -7.36371148e-03 2.44733002e-02 -6.29886165e-02 -2.32589580e-02
      2.73486972e-02 6.86185956e-02 -1.43174782e-01 3.36735919e-02
      1.25554055e-01 7.17130676e-03 4.32664156e-02 -1.71879083e-02
      -2.39665918e-02 -8.82398933e-02 -7.80798718e-02 -2.11013764e-01
      -4.85676825e-02 4.29556929e-02 1.55239981e-02 -1.77406333e-02
      9.87125561e-02 5.45188151e-02 1.23287119e-01 -1.64232060e-01
      -2.01706253e-02 9.37152430e-02 7.61704668e-02 -1.08922094e-01
      7.90152103e-02 8.81119370e-02 1.60293989e-02 -1.66063547e-01
      -2.79488731e-02 9.75145102e-02 5.26185073e-02 1.09242789e-01
      -1.33745939e-01 4.96905856e-02 6.98872209e-02 4.50433530e-02
      -8.80964994e-02 6.61672428e-02 -3.49185877e-02 4.10199910e-02
      6.58982918e-02 -1.04656532e-01 -5.41941449e-02 -2.57186182e-02
      -1.07628487e-01 -4.33547162e-02 -3.69216129e-02 4.34854403e-02
      7.18175173e-02 -6.82368055e-02 -2.13875294e-01 -4.88749072e-02
      2.99012382e-02 1.14142857e-01 2.94545013e-02 -1.20649174e-01
      -4.70609684e-03 5.08708097e-02 -1.31606162e-01 -1.67825133e-01
      -2.75022574e-02 -5.66523569e-03 4.65972442e-03 6.13190643e-02
      2.69544814e-02 -7.08382502e-02 -5.06779924e-02 1.42616078e-01
      4.91845831e-02 5.08724935e-02 4.29709107e-02 2.74569504e-02
      -7.41529614e-02 -7.36306533e-02 1.05316885e-01 5.36917336e-02
      5.27281687e-02 1.01562459e-02 1.00033402e-01 -7.65355155e-02
      -3.56556475e-02 9.06724669e-03 -6.18336871e-02 8.17929357e-02
      5.62636815e-02 9.64241996e-02 7.49924779e-02 3.26707661e-02
      -1.28606036e-01 7.95294046e-02 -7.19673261e-02 5.34195416e-02
      2.32215285e-01 -1.08982258e-01 2.14407474e-01 7.37000182e-02
      9.30212811e-02 1.73210036e-02 8.23739991e-02 8.78935084e-02
      2.03045547e-01 5.88444434e-02 -7.11545348e-02 -1.98329613e-02
      1.92360952e-01 7.89044425e-02 -2.40967497e-02 4.42613624e-02
      -6.24413230e-02 -1.82226654e-02 5.43167675e-03 7.46222213e-02
      1.60185397e-02 -6.05991147e-02 2.80868560e-02 -2.01755986e-01
      -3.48260365e-02 8.67977291e-02 1.49172723e-01 -6.55054003e-02
      -5.85381091e-02 1.80959329e-02 7.04611391e-02 7.53361806e-02
      1.65914759e-01 4.23043184e-02 -3.68382186e-02 2.42101345e-02
      -5.38495407e-02 9.49891564e-03 -4.29825187e-02 1.43715208e-02
      -7.45844916e-02 -5.29753380e-02 1.19023435e-02 -6.30499050e-02
      -1.08547270e-01 2.67162472e-02 -9.99031141e-02 3.41861360e-02
      -2.25883380e-01 5.92510439e-02 -2.75994372e-02 -9.72920656e-03
      2.52954010e-02 4.08681436e-03 9.44334418e-02 -5.34495804e-03
      -1.81453303e-03 -2.26698034e-02 -2.85735093e-02 1.03465624e-01
      4.39434275e-02 -6.44695237e-02 1.08399272e-01 -7.94935524e-02
      -1.58900246e-02 -1.14435993e-01 -8.75731111e-02 1.08207040e-03
      -9.03505608e-02 2.37060282e-02 -3.77538949e-02 5.74905276e-02
      7.22922385e-02 -5.74005991e-02 1.33438818e-02 -2.36195982e-01
      1.41375408e-01 1.68454871e-02 5.08865248e-03 1.19446307e-01
      2.58275181e-01 3.70816961e-02 -2.73185205e-02 7.69128129e-02
      1.27334788e-01 -1.07914954e-02 1.14452511e-01 1.15314879e-01
      -1.88060626e-01 -1.82371989e-01 5.22939153e-02 -2.04658464e-01
      5.62836900e-02 -5.89350425e-02 -8.98478702e-02 -3.38015892e-02
      1.62256777e-01 7.21086049e-03 1.50062470e-02 -5.95133891e-03
      3.73980999e-02 6.26493543e-02 -6.74838796e-02 -9.94466618e-02
      -6.02841824e-02 -4.13121693e-02 -2.40176201e-01 -2.56624836e-02
      -1.41871512e-01 2.44062878e-02 5.19454442e-02 3.90857365e-03
      3.30040716e-02 -6.48646131e-02 4.41737436e-02 1.31909519e-01
      -8.55877548e-02 -1.12483418e-02 3.45706232e-02 7.38818711e-03
      1.06430888e-01 -3.16863060e-02 -1.10376649e-01 1.64371450e-03
      2.39931550e-02 -9.05038714e-02 -1.62208736e-01 -1.93960667e-02
      8.39987695e-02 7.30470866e-02 -1.18086681e-01 1.61977448e-02
      1.27150819e-01 -4.75611277e-02 -9.88135412e-02 6.25904053e-02
      2.73651741e-02 -2.14090105e-02 8.38894863e-03 -5.03444336e-02
      9.24054831e-02 1.10235639e-01 -9.12639126e-02 -3.66719477e-02
      5.42025939e-02 2.01213345e-01 8.19597468e-02 1.47610381e-01
      2.11331367e-01 -4.56716642e-02 -5.46718687e-02 1.62845269e-01
      6.85848668e-02 6.87618926e-02 1.21850416e-01 3.97447199e-02
      -1.42174751e-01 1.54485449e-01 1.72823519e-01 -1.21870033e-01
      -3.78727727e-02 -1.75748125e-01 7.25213885e-02 9.73556563e-02
      -3.48356925e-02 2.68704351e-03 1.08412378e-01 7.00703859e-02
      2.26884503e-02 1.09973244e-01 7.21570849e-03 -2.43873219e-03
      -1.31103873e-01 -9.98564661e-02 -1.64479718e-01 -2.26926859e-02
      -3.59326787e-02 3.60241625e-03 5.87140620e-02 8.05307850e-02
      9.13515463e-02 -2.70617343e-02 -1.00570899e-02 6.40868917e-02
      -8.77949875e-03 4.99166809e-02 -1.65360887e-02 -4.93536964e-02
      -5.63804656e-02 -1.39131695e-01 7.81365708e-02 -9.87779945e-02
      5.72823994e-02 1.30423591e-01 8.54834449e-03 5.05068712e-02
      3.42855416e-02 4.54559736e-02 9.75303203e-02 -4.26929444e-02
      -9.75966156e-02 8.14512298e-02 -5.16048307e-03 -6.07883036e-02
      5.94151542e-02 -8.68010670e-02 -1.96126867e-02 1.11687586e-01
      -6.28541261e-02 8.53036419e-02 2.04971179e-01 6.61233515e-02
      5.75917698e-02 1.04273334e-01 9.52188745e-02 -2.20060293e-02
      -5.74565791e-02 -6.13737479e-02 1.06320374e-01 1.44235030e-01
      -4.70652506e-02 -1.41793564e-01 -1.60694361e-01 6.73699379e-02
      1.56555306e-02 -8.01559910e-02 -3.84090245e-02 -5.54001369e-02
      -1.00531444e-01 4.15738337e-02 -1.01027593e-01 4.03183550e-02
      -3.62845473e-02 -1.52965784e-01 -9.44200456e-02 -1.75892442e-01
      2.42491551e-02 9.37995538e-02 1.07981056e-01 5.41308373e-02
      -1.18860908e-01 4.66117561e-02 8.73046219e-02 7.28088841e-02
      1.87040051e-03 -3.45107019e-02 -9.00552943e-02 2.36351162e-01
      6.20600767e-02 -2.01572105e-01 -1.80129446e-02 -5.03814146e-02
      -8.14742297e-02 1.44347563e-01 5.62716573e-02 -5.26759820e-03
      -4.98351678e-02 -1.58388197e-01 6.02346808e-02 -2.38487069e-02
      -2.52205968e-01 3.08159017e-03 5.08055575e-02 1.45868212e-01
      2.91303750e-02 -2.46428046e-02 2.05312103e-01 4.11965735e-02
      -4.00300212e-02 -1.22710273e-01 8.98244232e-02 1.75780952e-01
      -5.62445931e-02 -1.42710820e-01 3.60078067e-02 2.68043838e-02
      -1.69917904e-02 9.00284797e-02 8.70518759e-02 -6.69801459e-02
      -5.76689206e-02 -1.03955477e-01 -2.98066549e-02 -5.81191257e-02
      -4.85876203e-02 5.36873750e-03 -7.71809369e-02 -1.03302442e-01
      2.10369736e-01 1.06459804e-01 2.09022798e-02 -8.82504601e-03
      -1.04668647e-01 -5.42526692e-02 2.59349674e-01 -4.45793793e-02
      9.41685736e-02 8.68688524e-02 3.08646983e-03 4.84336466e-02
      1.72987878e-01 -1.85732394e-02 -2.50412151e-02 7.49090984e-02
      8.58847145e-03 -9.23626497e-02 -5.07583022e-02 8.13388899e-02
      2.00600587e-02 2.12349251e-01 -5.78018799e-02 -1.00106955e-01
      8.63098819e-03 -4.17769887e-02 -6.55594468e-02 3.96354981e-02
      -1.83361083e-01 -3.89895365e-02 1.74483821e-01 -2.41633549e-01
      -3.75684910e-02 2.26754732e-02 1.62032321e-02 -1.27822697e-01
      9.14561935e-03 1.66549444e-01 -1.58899695e-01 9.20513794e-02
      1.63375944e-01 2.68798172e-02 -7.17825163e-03 -1.06825553e-01
      -4.73721847e-02 -8.46995562e-02 1.19397044e-01 -2.60561761e-02
      1.59591064e-01 2.32142255e-01 3.01495623e-02 2.03763396e-02
      -9.04624388e-02 1.17844023e-01 -5.50886542e-02 -7.59513751e-02
      -8.86636786e-03 -4.13399301e-02 -3.55085768e-02 1.13663256e-01
      -7.41116703e-02 6.96547627e-02 -5.48089072e-02 1.41925111e-01
      1.48019433e-01 -1.20293528e-01 6.36775419e-02 4.67259847e-02
      -1.91119254e-01 -1.45564362e-01 7.88658708e-02 1.66677944e-02
      9.49222818e-02 1.14126809e-01 4.25075404e-02 -3.13776843e-02
      5.40805236e-03 -1.59949973e-01 1.66980058e-01 1.15599185e-01
      3.86255346e-02 7.07703009e-02 -2.51706213e-01 -3.90071124e-02
      1.11663051e-01 8.61556455e-02 2.41546016e-02 -5.92757277e-02
      -1.98458806e-02 7.60229900e-02 -6.79675788e-02 -8.64924341e-02
      2.20054220e-02 9.37531218e-02 -9.49694868e-03 -1.30488267e-02
      1.27205551e-01 5.55003295e-03 -5.45108430e-02 1.34437308e-02
      -3.34336311e-02 -9.68006998e-03 8.97513479e-02 4.53340411e-02
      -8.41959864e-02 -2.35544086e-01 -4.71731611e-02 1.24875002e-01
      1.17422290e-01 -6.02811761e-02 -4.41669598e-02 -5.04043587e-02</_></support_vectors>
  <decision_functions>
    <_>
      <sv_count>1</sv_count>
      <rho>3.7709170974964412e-01</rho>
      <alpha>
        1.</alpha></_></decision_functions></my_svm>
</opencv_storage>
