<?xml version="1.0"?>
<opencv_storage>
<my_svm type_id="opencv-ml-svm">
  <svm_type>EPS_SVR</svm_type>
  <kernel><type>LINEAR</type></kernel>
  <C>1.</C>
  <p>1.0000000000000001e-01</p>
  <term_criteria><epsilon>1.0000000474974513e-03</epsilon>
    <iterations>1000</iterations></term_criteria>
  <var_all>1764</var_all>
  <var_count>1764</var_count>
  <sv_total>1</sv_total>
  <support_vectors>
    <_>
      1.54653609e-01 1.41750909e-02 1.79392437e-03 1.85162649e-02
      2.20092118e-01 -1.92529291e-01 -1.65350184e-01 1.30003512e-01
      1.17358319e-01 -1.17889464e-01 2.45722905e-01 -1.37309864e-01
      4.16351296e-02 -5.70687056e-02 -1.85127631e-01 7.15220720e-02
      6.51385114e-02 -3.20791677e-02 -1.12535141e-01 6.24086196e-03
      -1.28205627e-01 4.94313485e-04 -1.36109009e-01 -5.75090274e-02
      -1.97505280e-02 -2.06501503e-02 6.21631965e-02 -1.09485589e-01
      -1.97791904e-02 -1.30311236e-01 1.70634296e-02 -1.35760546e-01
      -1.12457715e-01 1.12588301e-01 -2.31125746e-02 1.84712052e-01
      -3.89306583e-02 8.91802087e-02 -1.31875321e-01 2.42363840e-01
      1.16108119e-01 -1.04801217e-02 6.68908581e-02 6.95820525e-02
      3.61788347e-02 -1.49132293e-02 -3.42097022e-02 -3.91191542e-02
      2.33934019e-02 -1.64060965e-01 -1.88433334e-01 3.09064705e-02
      1.29383318e-02 1.00619040e-01 1.75447643e-01 -2.14909106e-01
      -6.70675188e-02 -1.13636196e-01 8.73972028e-02 -7.39108697e-02
      1.94812212e-02 -7.11157620e-02 1.92545772e-01 -2.85952762e-02
      -9.23807770e-02 4.99369428e-02 -1.64866388e-01 -5.46756200e-02
      3.44092175e-02 8.53798613e-02 1.45730684e-02 6.39722869e-02
      -1.78356811e-01 -7.90581852e-03 8.51730183e-02 1.38221085e-01
      -3.89876813e-02 -1.24068752e-01 -1.12205841e-01 9.56832916e-02
      -8.75498354e-02 -2.20947206e-01 1.72687158e-01 1.06053472e-01
      4.49616723e-02 5.62196411e-02 -7.26796389e-02 -4.71019559e-02
      1.30290374e-01 -3.15223634e-02 -2.45847050e-02 1.94962159e-01
      -5.23765804e-04 2.50436254e-02 1.62869647e-01 9.58497301e-02
      2.17711963e-02 -1.29705578e-01 -1.36469036e-01 -1.78032473e-01
      2.68157367e-02 -9.05392691e-02 5.58508746e-02 -1.31271794e-01
      7.00314566e-02 1.53377503e-02 5.08923344e-02 1.55856997e-01
      -1.52984718e-02 -3.76699530e-02 -7.36645237e-02 1.87075920e-02
      7.46121034e-02 3.08604002e-01 -4.80144061e-02 1.21518172e-01
      1.25551715e-01 5.69507182e-02 -1.04607932e-01 3.66112851e-02
      2.57731110e-01 3.10684033e-02 2.91622858e-02 -5.14482446e-02
      2.62084343e-02 -6.59152642e-02 6.49110526e-02 -7.92728513e-02
      3.49336825e-02 -5.86747192e-02 7.00040301e-03 2.63174344e-02
      8.29413682e-02 1.22796424e-01 2.75175292e-02 2.28445977e-02
      4.97491248e-02 9.14725512e-02 -2.34934930e-02 -7.65717123e-03
      2.31814887e-02 3.95804085e-02 5.32208160e-02 -4.54581603e-02
      1.03775039e-01 -1.62099794e-01 -2.41879672e-02 1.17310174e-01
      -7.13365711e-03 1.28758177e-02 9.58249420e-02 1.95320100e-02
      7.50481114e-02 -5.20069636e-02 -1.66363809e-02 5.23590222e-02
      -1.60552323e-01 -4.53979075e-02 -2.18121521e-02 -2.81620976e-02
      1.56841502e-01 1.21492464e-02 -6.29222170e-02 9.13757533e-02
      1.19873090e-02 1.09263875e-01 1.39177486e-01 2.58490533e-01
      1.89016145e-02 -2.56817136e-02 9.60066766e-02 1.59111634e-01
      1.20547004e-01 -2.84378350e-01 1.31386772e-01 -1.15856916e-01
      -1.51747778e-01 6.81023002e-02 1.34826317e-01 5.20750023e-02
      -8.82147700e-02 -3.16066691e-03 -1.14756167e-01 -9.88902524e-02
      -1.21249296e-01 8.78029689e-02 7.84774404e-03 8.56975317e-02
      -8.01244527e-02 7.18746036e-02 -4.25309055e-02 1.11480378e-01
      1.31716086e-02 -6.23579994e-02 8.60105008e-02 -7.61761442e-02
      8.26363340e-02 1.14625841e-01 -1.03005424e-01 5.74249774e-02
      -1.11676849e-01 7.30371401e-02 -1.12318620e-01 2.10385043e-02
      3.07475906e-02 5.07064946e-02 -1.15020582e-02 2.43377648e-02
      -3.96579728e-02 6.77353963e-02 5.64808697e-02 -1.66716263e-01
      -7.22114369e-02 -3.09974290e-02 -7.37012923e-02 -9.79427323e-02
      8.29686001e-02 -8.99245664e-02 -1.19585127e-01 -1.63769469e-01
      -7.30336979e-02 -3.26725170e-02 -9.01244357e-02 1.52419433e-02
      2.03610975e-02 3.33418697e-02 1.01733163e-01 -3.08166593e-01
      5.84435239e-02 1.81254417e-01 -5.31603433e-02 -6.13077134e-02
      1.02413349e-01 -2.29785308e-01 -5.32106962e-03 -4.43015620e-02
      7.87426978e-02 1.61817119e-01 -7.53562450e-02 1.91865638e-02
      -1.05738873e-02 -4.33472693e-02 -3.72779630e-02 3.29894423e-02
      2.30504110e-01 2.91592069e-02 -3.39445844e-02 3.08132172e-01
      4.34452631e-02 -1.74149014e-02 1.26477495e-01 -1.11861221e-01
      -7.95131475e-02 -3.20355035e-03 -1.03361890e-01 1.51566491e-01
      -1.46133415e-02 1.02826148e-01 1.30826220e-01 -4.71355617e-02
      7.98900947e-02 -1.79073587e-01 -1.76021308e-01 2.26631965e-02
      3.95001955e-02 9.60854441e-02 3.88327911e-02 -3.63322347e-02
      2.51458474e-02 9.89465881e-03 1.69943258e-01 7.21663982e-02
      -4.12665261e-03 1.16754556e-03 2.34182421e-02 4.43999022e-02
      -6.64815530e-02 3.20653059e-02 -2.24343855e-02 -9.43670571e-02
      -1.70573488e-01 -9.08922106e-02 -1.28339268e-02 -5.04883416e-02
      -2.53347922e-02 1.91541109e-02 8.47318843e-02 -3.90476771e-02
      9.72457454e-02 -7.98154175e-02 1.69633731e-01 -6.72315359e-02
      1.07160777e-01 -5.60277747e-03 -1.22285053e-01 -1.29430190e-01
      2.15124413e-02 9.10182446e-02 4.09677029e-02 1.18351661e-01
      -5.84988780e-02 2.24497356e-03 2.22521946e-02 -5.25509194e-02
      9.19316858e-02 1.93986632e-02 -7.07782209e-02 4.64590751e-02
      -4.27902639e-02 6.23649769e-02 1.18048958e-01 9.77417529e-02
      5.52984402e-02 1.25215694e-01 -1.22022577e-01 9.69704837e-02
      1.75372690e-01 9.23885498e-03 3.97198610e-02 -1.07100628e-01
      -1.61867425e-01 -1.51381671e-01 6.73200190e-02 -1.01272780e-02
      -3.25338915e-02 3.21529619e-02 -1.42228067e-01 -3.33416951e-03
      8.37312341e-02 5.28137237e-02 -8.57732370e-02 2.55728420e-02
      -2.76060421e-02 8.64834115e-02 -3.69246267e-02 -1.71598289e-02
      3.25751171e-04 8.36106855e-03 1.37688205e-01 -9.42967162e-02
      3.89439575e-02 1.13491945e-01 4.46401574e-02 3.44192907e-02
      3.19386721e-02 9.65613872e-02 -1.07744709e-01 -5.41507602e-02
      5.57996817e-02 -2.30665039e-02 -7.72908553e-02 -2.18811795e-01
      -9.00091678e-02 1.31071478e-01 -1.83362514e-01 -1.28788918e-01
      -8.76588523e-02 -3.59386206e-02 -8.48801713e-03 2.31064968e-02
      2.05573156e-01 1.31550446e-01 -1.40260637e-01 1.00124395e-02
      8.16194341e-02 -2.02628687e-01 -7.23483413e-02 1.64469883e-01
      1.35101691e-01 -2.53876783e-02 1.93105116e-02 5.32378107e-02
      3.83005734e-03 9.09547880e-03 -3.05905968e-01 -4.30318154e-02
      4.84610274e-02 4.44199182e-02 -9.84429345e-02 -8.33821297e-02
      4.82930243e-02 -3.48176956e-02 1.82587966e-01 1.18755639e-01
      -5.96802197e-02 7.27109537e-02 1.43887857e-02 -2.42470969e-02
      1.03536204e-01 -2.76333597e-02 -2.78400648e-02 -5.81959151e-02
      1.00349933e-01 -8.83518457e-02 -4.89062406e-02 -4.96930964e-02
      -4.05277833e-02 3.13797966e-02 1.23814218e-01 -7.52433687e-02
      -5.33883125e-02 1.00338817e-01 -9.87163112e-02 1.09798476e-01
      1.96616650e-02 7.98525289e-02 1.36422375e-02 -6.07636757e-02
      6.14313968e-02 4.28847410e-02 -1.90073043e-01 -1.03189915e-01
      1.09453000e-01 -3.71249765e-02 -1.43091932e-01 1.18242260e-02
      -5.64259328e-02 -1.36428148e-01 -4.25693356e-02 1.31105289e-01
      -1.89342439e-01 -5.75527595e-03 -1.08040608e-01 -1.20042555e-01
      1.96203589e-02 -2.85430662e-02 -1.10158235e-01 -3.36414063e-03
      6.86947331e-02 -1.48988411e-01 -1.55007899e-01 -9.80870798e-03
      4.77831326e-02 -2.18311697e-01 4.17317450e-02 4.64191474e-03
      9.19786617e-02 -1.48206234e-01 8.94153267e-02 1.08416431e-01
      6.45327643e-02 -5.93000315e-02 -4.33640964e-02 6.54358119e-02
      -1.06011733e-01 9.80075523e-02 -9.69625786e-02 -5.97180873e-02
      7.05111399e-02 -9.96946543e-03 -1.33160219e-01 -3.12320199e-02
      2.85403430e-02 -2.56615002e-02 3.27723064e-02 1.41812414e-01
      4.02980559e-02 -8.79886448e-02 -9.07701924e-02 -1.78259820e-01
      1.50071774e-02 -9.00439769e-02 -5.57404868e-02 1.31614029e-01
      3.55505385e-02 -4.75489758e-02 -1.21159172e-02 8.59117508e-02
      6.92126825e-02 -9.23866257e-02 8.27184618e-02 1.69523694e-02
      1.11094669e-01 3.94469984e-02 -3.99879143e-02 1.68481609e-03
      -2.40214244e-02 2.29723845e-02 4.17618342e-02 6.47153705e-02
      -1.51031971e-01 -5.37852868e-02 -3.81882116e-02 -1.50040910e-01
      1.06462084e-01 -6.85264636e-03 4.44673467e-03 -4.68359105e-02
      3.37784439e-02 2.58054547e-02 -8.94646905e-03 -1.44740552e-01
      -1.65830761e-01 2.82913782e-02 5.03082424e-02 -5.49629815e-02
      1.26467366e-02 5.83916381e-02 3.61538827e-02 6.29348680e-02
      1.89196602e-01 -6.41191825e-02 8.39808732e-02 -1.10548191e-01
      9.83240306e-02 3.17291357e-02 -6.20504841e-02 7.30464086e-02
      -8.96271467e-02 -1.28313199e-01 -1.83948740e-01 2.11655051e-02
      -4.14821282e-02 5.53807393e-02 7.53306076e-02 -1.46586776e-01
      3.47597934e-02 4.90925945e-02 -6.45886362e-02 -7.93650821e-02
      1.45294905e-01 -1.14733480e-01 -8.85149539e-02 3.06777656e-02
      3.74618135e-02 -1.24388322e-01 1.13160782e-01 5.05644642e-02
      4.91370894e-02 -1.58776820e-01 1.04557537e-03 -6.05786256e-02
      3.75000387e-02 -2.43502203e-02 1.45255625e-01 -1.85811251e-01
      2.25045588e-02 1.93987060e-02 -4.69992422e-02 -5.10967374e-02
      2.92860232e-02 1.32191852e-01 -2.77571380e-01 -1.02453390e-02
      7.74042755e-02 -4.21188287e-02 7.91335031e-02 2.00112119e-01
      1.24207459e-01 6.04144298e-02 1.83957107e-02 9.22337025e-02
      -1.74255356e-01 8.37912932e-02 -4.49592248e-02 -1.06672965e-01
      1.71234965e-01 8.64707232e-02 -8.11808184e-03 4.37971801e-02
      -1.68407440e-01 4.28960100e-02 -3.15958783e-02 2.77703106e-02
      3.72733288e-02 -7.20324740e-02 -7.56670982e-02 -3.10762394e-02
      -4.34491336e-02 9.32062864e-02 -7.29325041e-02 -1.73868090e-01
      -9.46785733e-02 2.65927054e-02 4.06245254e-02 1.15104660e-01
      6.85682073e-02 -1.10841662e-01 3.50656966e-03 2.54954621e-02
      -4.82481644e-02 9.20726545e-03 -7.52522722e-02 -2.73597352e-02
      -7.69813880e-02 -3.72580476e-02 3.81483673e-03 8.46541545e-04
      1.27020389e-01 3.19917337e-03 6.04423173e-02 1.62906926e-02
      1.07880794e-01 2.88918726e-02 2.00978927e-02 7.47448811e-03
      1.12479255e-01 2.04517484e-01 1.02445602e-01 -5.64933904e-02
      -2.78390408e-03 4.09199633e-02 4.87086959e-02 1.21802382e-01
      3.82532142e-02 -8.40677992e-02 5.87363578e-02 5.18964827e-02
      1.91182345e-02 -1.83851272e-01 1.65271580e-01 -3.48434672e-02
      -1.06096320e-01 -3.66457440e-02 -8.11742172e-02 -4.51013260e-02
      -1.45964384e-01 3.50463502e-02 1.55482292e-02 -4.17782739e-02
      9.92040634e-02 5.06609865e-02 -5.61529361e-02 -5.99044226e-02
      -9.61759780e-03 4.56076898e-02 2.98233721e-02 9.48260948e-02
      7.95496553e-02 -6.03866838e-02 1.18477829e-01 1.03968643e-01
      4.15830947e-02 2.07184553e-01 -9.26467329e-02 1.25907496e-01
      -7.23534748e-02 -6.39620796e-02 2.41861269e-01 2.25814462e-01
      -1.19269351e-02 -4.16330546e-02 -6.14426658e-02 -4.27639000e-02
      -2.13218793e-01 -5.39587811e-02 -1.93466038e-01 -3.68825383e-02
      4.17169966e-02 -1.57102272e-01 -6.76924884e-02 -1.45564321e-02
      4.45998982e-02 5.29847555e-02 -7.27962181e-02 4.72181737e-02
      -6.42526671e-02 3.39920670e-02 -8.02204944e-03 -2.39446498e-02
      7.74315000e-02 -5.30209467e-02 -2.41880678e-03 6.37449976e-03
      4.77602370e-02 9.45315659e-02 1.14765212e-01 1.38976714e-02
      2.37166341e-02 -8.24363977e-02 6.72005638e-02 -4.12357077e-02
      -1.28479093e-01 -1.07940391e-01 -2.23055501e-02 4.41442579e-02
      -6.58179894e-02 6.74418584e-02 -5.61168417e-02 -1.35249421e-02
      -2.36833617e-01 -4.07031998e-02 7.31544793e-02 -2.41803974e-02
      1.31607562e-01 8.09995979e-02 2.13153511e-01 1.79968819e-01
      -1.72119528e-01 1.60262436e-01 1.11154385e-01 1.07666388e-01
      -4.44146506e-02 -4.02156860e-02 6.59219772e-02 5.93937039e-02
      -1.61276981e-01 -5.24499640e-02 8.16104189e-02 -8.78712833e-02
      -2.09432691e-01 3.85778472e-02 -4.83469032e-02 -1.13569885e-01
      6.71067834e-02 3.37021686e-02 -1.46179512e-01 1.50793195e-01
      1.64661519e-02 2.39549443e-01 -4.04892974e-02 6.29428849e-02
      -7.17425346e-02 8.51156265e-02 8.10838863e-02 -8.00219923e-03
      1.92555413e-01 4.45098430e-02 1.16892628e-01 8.10203794e-03
      -4.19708155e-02 -9.11251083e-02 -6.21343404e-02 1.20637752e-01
      7.09921643e-02 1.11750871e-01 1.66189149e-02 -1.20563470e-01
      2.63886284e-02 1.03880495e-01 -7.61812031e-02 -7.70314261e-02
      -6.50735199e-02 1.84458718e-01 1.27725592e-02 1.37543485e-01
      4.30657677e-02 -3.62346955e-02 2.76911575e-02 1.17732182e-01
      8.17156062e-02 3.91144305e-02 2.45292243e-02 1.90371558e-01
      -3.27196382e-02 -6.70390390e-03 -6.40016198e-02 -1.31240502e-01
      1.34749606e-01 2.96250790e-01 -6.60287067e-02 -6.89161122e-02
      -5.30206673e-02 2.05023400e-02 8.96709859e-02 -1.10531121e-01
      4.36650869e-03 -1.15727320e-01 6.03858642e-02 -7.54910111e-02
      3.38529378e-01 5.24607673e-02 2.27145851e-02 -9.00347531e-02
      7.49688670e-02 -5.40726520e-02 -3.18672135e-02 -1.47612477e-02
      1.48032010e-01 -1.24355361e-01 -9.35334414e-02 1.38330474e-01
      1.08033791e-01 -6.75711557e-02 5.90894893e-02 1.22629516e-01
      2.16789413e-02 -7.43723810e-02 9.37430784e-02 -2.93347836e-02
      -1.64891973e-01 2.13353306e-01 2.23912254e-01 -3.40894759e-02
      -7.65303848e-03 1.81638777e-01 4.65058461e-02 8.86442047e-03
      7.20827803e-02 1.00252680e-01 -2.80474662e-03 1.19346440e-01
      1.36213511e-01 6.45456389e-02 -5.10599092e-02 4.35213856e-02
      -2.53745969e-02 -1.51519850e-02 4.09503356e-02 -5.59422038e-02
      -1.75326645e-01 -6.87608542e-03 -4.71407026e-02 -8.14173892e-02
      -1.23434119e-01 -3.33198725e-04 2.81731375e-02 -1.16863921e-01
      -5.02288043e-02 1.27894327e-01 3.12066041e-02 1.12166060e-02
      1.80156797e-01 2.53670458e-02 -1.60142437e-01 -5.70523143e-02
      1.15724258e-01 1.31222874e-01 1.81070864e-01 -1.96070485e-02
      8.13987330e-02 -3.54080871e-02 -3.23508605e-02 -9.10084173e-02
      -5.14184013e-02 -7.77978078e-02 5.58690317e-02 2.47717068e-01
      -3.42557207e-02 -1.35643899e-01 -1.45799424e-02 4.46391180e-02
      1.81536600e-02 1.41703159e-01 1.80964135e-02 1.88944802e-01
      -1.02995560e-02 -3.26321125e-02 2.12563183e-02 9.23089236e-02
      -1.26072779e-01 -4.35585752e-02 5.71244881e-02 -8.06073248e-02
      1.73310965e-01 -1.37782097e-01 -1.93967447e-01 5.45481704e-02
      -9.18035582e-03 -4.40508686e-02 -6.71613514e-02 -8.19520950e-02
      -3.49834338e-02 -2.40234397e-02 -1.55738428e-01 4.88145128e-02
      1.31968211e-03 -9.49898064e-02 -5.13146035e-02 -3.05482335e-02
      -2.77127057e-01 -2.02103272e-01 -5.75047694e-02 -2.69609541e-02
      -1.70579582e-01 7.68157318e-02 7.80742615e-02 7.24670961e-02
      -3.88426520e-02 6.48517311e-02 2.88491463e-03 5.01169451e-02
      -6.01133220e-02 -5.21257520e-02 -1.17061734e-01 4.76162620e-02
      -2.85647698e-02 4.35130373e-02 -4.24522348e-02 7.77879506e-02
      1.49005532e-01 -2.13735312e-01 6.27136081e-02 6.98695481e-02
      -5.54256316e-04 -1.57320634e-01 -1.27226636e-01 -1.35440812e-01
      -1.63980067e-01 1.03394911e-01 -6.32653609e-02 1.53887393e-02
      -6.06646240e-02 -1.47098154e-01 -1.10328376e-01 8.15397426e-02
      -6.86944872e-02 6.90769702e-02 2.41674900e-01 -9.65860337e-02
      -1.00470610e-01 -1.22999109e-01 1.15531757e-01 1.30571544e-01
      1.22972406e-01 7.18131885e-02 1.64366141e-01 1.03718527e-01
      2.66164243e-02 -1.73291992e-02 -4.94226329e-02 5.92345446e-02
      1.05237849e-01 1.63816705e-01 4.04156595e-02 -1.19421765e-01
      5.13417348e-02 1.57739505e-01 1.37581259e-01 -4.54962589e-02
      9.83291194e-02 4.69305925e-02 1.14452355e-01 -1.04326546e-01
      1.02623343e-01 2.49836072e-02 7.02468604e-02 8.26606527e-02
      -2.80340333e-02 -3.99922803e-02 -9.12203342e-02 1.35031447e-01
      5.60882175e-03 5.73917925e-02 -7.30424970e-02 9.01089013e-02
      -5.54960296e-02 1.27224112e-02 9.23527032e-02 5.64226322e-02
      -3.90826091e-02 1.77088771e-02 -6.81973770e-02 2.19629910e-02
      1.09593362e-01 1.29996791e-01 -3.81251201e-02 -2.49779988e-02
      4.65363190e-02 -1.27569549e-02 -1.50536338e-03 -7.52871633e-02
      3.43434773e-02 -2.95557566e-02 -4.64553460e-02 1.16017558e-01
      -1.13595001e-01 -9.63303819e-02 -4.47807796e-02 -1.82556361e-02
      -6.96632341e-02 -1.26439855e-01 3.96330692e-02 4.68266681e-02
      1.16062865e-01 4.27107885e-02 -1.64908096e-01 -1.53945386e-01
      -3.92114706e-02 1.50227798e-02 2.46578962e-01 -1.28416345e-01
      -4.24330197e-02 9.55944061e-02 -1.61326662e-01 -9.06958282e-02
      -4.68230657e-02 9.06590298e-02 3.33370753e-02 -7.25774094e-02
      -2.66336706e-02 -1.38539985e-01 1.72951091e-02 -3.30369398e-02
      3.33457403e-02 9.93877556e-03 -8.69940519e-02 4.82087322e-02
      -8.11718479e-02 -5.83080836e-02 -9.46470723e-03 3.49545702e-02
      -2.36033097e-01 2.58247443e-02 3.23897861e-02 -3.54718380e-02
      -5.14606982e-02 7.03323185e-02 -2.69589812e-01 -1.00734659e-01
      -2.88900398e-02 -1.96523797e-02 4.20310348e-03 1.94280297e-02
      -7.71648437e-02 -1.55875251e-01 -5.62859625e-02 9.09377709e-02
      -2.49342415e-02 -6.72003031e-02 -1.44356787e-01 -1.82444260e-01
      7.51082972e-02 -1.38776854e-01 -2.26117373e-01 -1.33497104e-01
      5.52861765e-02 -6.50266036e-02 -6.22401908e-02 -1.70015134e-02
      -8.12412128e-02 7.54585117e-02 -1.46851456e-02 2.22424865e-02
      -3.56478505e-02 1.66857392e-01 2.00710490e-01 1.09653577e-01
      -1.43585071e-01 7.72180548e-03 -3.98507863e-02 1.35060072e-01
      -7.25154486e-03 2.11602636e-02 -4.05602679e-02 -6.25853054e-03
      1.40560970e-01 -8.74739289e-02 -6.10202886e-02 1.20182060e-01
      -2.50880450e-01 -1.66973367e-01 1.39692407e-02 -5.28375842e-02
      -4.92636897e-02 6.53971583e-02 1.48787275e-01 9.79288891e-02
      -9.31019522e-03 4.06926535e-02 2.21097078e-02 2.93620378e-02
      1.40961751e-01 1.81854088e-02 6.85894042e-02 -1.81375723e-02
      9.43375528e-02 3.55598070e-02 -3.26349400e-02 -7.44504482e-02
      -1.25048859e-02 3.41770947e-02 1.70818090e-01 9.27611366e-02
      -8.41824636e-02 1.61851908e-03 -2.59507215e-03 5.63184032e-03
      -6.34816363e-02 7.94753134e-02 -5.80459647e-02 1.28310904e-01
      -1.00131057e-01 -1.54499024e-01 -1.85934857e-01 -1.52043104e-01
      -7.06040785e-02 1.19682357e-01 -1.75961316e-01 1.30170926e-01
      -1.00507617e-01 -7.16701895e-02 1.13727123e-01 -1.24855407e-01
      1.84325784e-01 5.42059839e-02 -6.68547973e-02 -1.74888000e-01
      -1.22594610e-02 4.31924537e-02 -1.30807072e-01 1.10683493e-01
      7.38341734e-02 1.95515543e-01 8.91574323e-02 1.44112006e-01
      -4.44472618e-02 8.37800056e-02 -1.36944614e-02 2.36367062e-02
      -1.02069722e-02 8.67035016e-02 7.39394203e-02 1.76191941e-01
      8.82940516e-02 -2.17258155e-01 6.13911636e-02 -1.03957854e-01
      1.91174850e-01 1.21099845e-01 1.87825114e-01 1.04111925e-01
      9.83184427e-02 1.49837539e-01 9.48983338e-03 2.05389056e-02
      1.94363564e-01 -1.96215995e-02 3.01891528e-02 -1.22370645e-01
      5.07539809e-02 1.27619505e-01 -1.20230339e-01 4.26382106e-03
      -4.67025442e-03 4.74288389e-02 1.04345791e-01 -3.84575240e-02
      -8.94147307e-02 5.80431409e-02 -3.24640945e-02 -2.39805475e-01
      -8.79008025e-02 6.30514473e-02 -1.04382589e-01 1.48373798e-01
      -7.24654421e-02 -2.57754233e-02 -5.59423910e-03 7.65449926e-02
      1.49533665e-03 -7.11172819e-03 -9.68251526e-02 -9.32953060e-02
      1.62716135e-01 5.14563285e-02 3.30888741e-02 2.99043246e-02
      -3.71406227e-02 9.00394544e-02 1.34677696e-03 -1.08263709e-01
      1.45907961e-02 8.73560309e-02 9.90818143e-02 1.16095819e-01
      -1.20780453e-01 -2.98762340e-02 -1.32367257e-02 -7.93368276e-03
      6.97013959e-02 -1.22634470e-01 3.57151628e-02 -5.97150140e-02
      2.00725961e-02 1.43709434e-02 5.84470890e-02 2.07570985e-01
      -3.15812714e-02 2.52150781e-02 -8.67333729e-03 -2.83424873e-02
      -3.24122980e-02 6.59774840e-02 -5.39700799e-02 1.51872530e-03
      -4.50432347e-03 -1.08887792e-01 1.09934723e-02 -1.39531851e-01
      1.04173645e-01 4.14199457e-02 -1.63746268e-01 -1.29658490e-01
      -6.42008409e-02 -7.01895207e-02 -6.88460320e-02 -3.31940763e-02
      -2.19572589e-01 -1.17083833e-01 -5.27598858e-02 -1.51626065e-01
      4.75528836e-02 -1.99043658e-02 5.87581396e-02 9.96697173e-02
      8.95511284e-02 -4.92146313e-02 2.91521028e-02 9.30018350e-02
      2.16888096e-02 9.85025689e-02 -7.94852972e-02 -1.35054454e-01
      1.24914259e-01 -7.02482685e-02 -2.03095093e-01 -2.86361203e-03
      -7.71638155e-02 1.73466563e-01 1.26930952e-01 -6.63242862e-02
      -1.05452262e-01 -6.57012910e-02 2.04420113e-03 4.00748998e-02
      -7.74236321e-02 4.40112092e-02 6.35014623e-02 4.73977923e-02
      5.57185325e-04 1.14294969e-01 5.80145977e-03 -1.01002432e-01
      3.62931192e-02 1.32016525e-01 -1.00520633e-01 -5.40425330e-02
      6.32282495e-02 -3.54439928e-03 -1.56427413e-01 6.07509948e-02
      8.00385997e-02 9.53860674e-03 6.04500212e-02 -1.03860274e-01
      -1.19389966e-01 -1.27386555e-01 5.73297963e-03 -8.20786804e-02
      1.23316415e-01 5.83196133e-02 1.65767632e-02 -9.15855169e-02
      8.35251957e-02 -3.63348378e-03 -2.30354015e-02 -1.12886421e-01
      1.14263799e-02 3.83285396e-02 -1.45396277e-01 -5.20082377e-02
      -5.70501201e-02 -2.65341066e-02 1.62928309e-02 -3.48828919e-02
      1.03419796e-01 6.27227500e-02 2.10319743e-01 -5.81878126e-02
      -2.93228514e-02 7.88669512e-02 1.30595849e-03 1.29934296e-01
      -1.08260684e-01 1.89116213e-03 1.64588496e-01 8.61896873e-02
      -1.63759246e-01 -1.28055140e-01 8.63008425e-02 -4.15164270e-02
      -1.39489427e-01 -1.20047610e-02 -6.92062974e-02 -3.04770768e-02
      9.39174835e-03 -2.33521447e-01 8.29359964e-02 1.01300485e-01
      -3.00152544e-02 -1.96068466e-01 -9.99999419e-02 1.80739630e-02
      -4.12331074e-02 -1.64663076e-01 -1.00577757e-01 -2.14041080e-02
      -1.58125460e-01 4.22290489e-02 -1.19559571e-01 -5.18353432e-02
      3.09225135e-02 2.26602107e-02 -5.54714426e-02 6.12609573e-02
      -8.55862796e-02 -9.41137448e-02 1.29719533e-03 -7.44905025e-02
      1.57293886e-01 1.04927070e-01 6.85067698e-02 8.76185745e-02
      -1.01411328e-01 1.26463339e-01 5.51139005e-02 7.19817281e-02
      -7.05331191e-02 -1.14722354e-02 6.25636941e-03 1.73502762e-04
      1.99409649e-01 -9.58163664e-03 8.65375027e-02 8.33579451e-02
      8.28375667e-02 -3.83996852e-02 2.26783790e-02 -4.74690460e-02
      9.53751355e-02 -4.95374240e-02 -2.12995745e-02 -6.83747325e-03
      1.49858892e-01 5.48664890e-02 5.62065169e-02 -1.48188800e-01
      1.36126624e-02 -3.42787765e-02 7.09885955e-02 -1.50300011e-01
      -1.33486956e-01 -5.65261813e-03 -1.12945542e-01 3.23077776e-02
      2.82623265e-02 -1.87579244e-02 -1.52390927e-01 2.05293298e-01
      3.85058708e-02 6.02357723e-02 7.71530271e-02 -9.89528745e-02
      -4.00876850e-02 -9.70110744e-02 -1.30646124e-01 1.48341909e-01
      1.65086791e-01 3.75344604e-02 -4.11691926e-02 8.74398053e-02
      -1.98234841e-01 5.97868813e-03 -1.04064636e-01 7.73210675e-02
      -1.41178086e-01 1.14288017e-01 -7.18690604e-02 1.18749656e-01
      1.96875319e-01 1.01476789e-01 -2.73872782e-02 -5.15476950e-02
      -3.62056121e-02 -1.49792954e-01 -4.47185487e-02 1.36835068e-01
      6.40148893e-02 -1.28879905e-01 -5.10670729e-02 1.42061710e-01
      -2.12093461e-02 6.27793595e-02 -1.22828642e-03 8.79147425e-02
      2.76936591e-02 9.80408490e-02 1.84064470e-02 -2.10598186e-02
      7.60624185e-02 -2.21592680e-01 5.57379983e-02 5.56235351e-02
      5.82370944e-02 9.45560485e-02 1.41884824e-02 5.05625010e-02
      4.34836894e-02 -5.29639274e-02 7.63866380e-02 -1.28277587e-02
      -2.93322448e-02 4.55230940e-03 2.57684663e-02 -6.01976365e-02
      -5.44838840e-03 1.83253467e-01 4.41354923e-02 2.07216758e-02
      5.04485853e-02 2.46259160e-02 -1.23088799e-01 1.62988991e-01
      -1.49216866e-02 -4.62080315e-02 4.52613719e-02 -1.93567052e-02
      2.14299299e-02 2.86515057e-02 -1.22827711e-02 1.16733201e-01
      -6.67770654e-02 -7.96478391e-02 7.94784054e-02 7.17753544e-02
      -9.77749452e-02 1.53512917e-02 3.38615775e-02 7.32600456e-03
      -2.24886704e-02 -4.69325408e-02 1.22685857e-01 1.36176366e-02
      4.62013222e-02 1.43478066e-01 2.22874403e-01 -9.19739529e-02
      3.88183743e-02 6.81562275e-02 1.28937647e-01 9.34269056e-02
      -2.28299946e-02 1.00756869e-01 -4.84880060e-02 5.29403873e-02
      2.84428224e-02 9.66757014e-02 1.41841263e-01 2.50746869e-02
      6.89423904e-02 4.53378409e-02 -1.50768355e-01 1.64707646e-01
      -1.86815718e-03 1.88975960e-01 -5.65969013e-02 -1.70836583e-01
      8.54368657e-02 8.73524994e-02 5.91063984e-02 -1.72829047e-01
      -3.49044576e-02 9.89878401e-02 1.70551494e-01 -5.58087640e-02
      1.82052366e-02 4.15393338e-02 7.33238533e-02 7.84954503e-02
      2.87753373e-01 4.45281789e-02 1.53911889e-01 3.22690383e-02
      -3.99036966e-02 1.18006445e-01 -2.49483362e-02 1.35603577e-01
      9.90452170e-02 -4.80468608e-02 1.19913146e-02 1.06164671e-01
      -1.87743977e-02 -4.45317179e-02 2.20160961e-01 -7.86859319e-02
      8.56084898e-02 -6.97752163e-02 3.13888416e-02 -1.48383304e-01
      -7.32750520e-02 -9.21220481e-02 -1.30400717e-01 3.24234343e-03
      -5.67462631e-02 8.38165954e-02 1.03650667e-01 -4.09698347e-03
      -4.29558046e-02 2.92811003e-02 -1.71983734e-01 -1.54367715e-01
      9.75229219e-02 5.06555894e-03 -2.34741569e-02 -1.18738219e-01
      1.38415590e-01 4.95235510e-02 9.29128900e-02 -1.96174923e-02
      1.42367734e-02 -1.36144822e-02 4.89889793e-02 -1.45665124e-01
      -5.99861480e-02 1.15659140e-01 -1.18318483e-01 1.02187268e-01
      -1.12320460e-01 -7.41527379e-02 -1.36517957e-02 1.54612303e-01
      9.83186886e-02 1.11954316e-01 -2.60679182e-02 9.76606682e-02
      -4.96879360e-03 -1.05505720e-01 8.12506378e-02 -6.50809631e-02
      -2.69599017e-02 -1.26234993e-01 -4.83730957e-02 7.77169392e-02
      1.68543413e-01 -1.03708275e-01 -2.02119663e-05 1.08835876e-01
      -5.85396066e-02 4.59740870e-02 2.54623979e-01 4.54791561e-02
      8.06420948e-03 -7.61664659e-02 1.75304621e-01 -7.38837384e-03
      -8.86327177e-02 -1.21492418e-02 -8.61523449e-02 4.23817560e-02
      -2.54078303e-03 -4.60221916e-02 3.35922800e-02 3.48165482e-02
      1.39602602e-01 -1.42166153e-01 -6.62232284e-03 -6.69859871e-02
      9.13699530e-03 2.12162379e-02 -1.30176425e-01 -1.07698124e-02
      -1.92219503e-02 -6.04947060e-02 -7.36450329e-02 -3.40670310e-02
      -5.11301309e-02 -1.69906214e-01 -5.34256287e-02 -8.50249156e-02
      -3.90770882e-02 8.63883346e-02 -1.48462087e-01 4.33628820e-02
      2.05001041e-01 -5.80596291e-02 -4.58922796e-02 5.86714409e-02
      1.73009764e-02 7.05698580e-02 4.85103428e-02 1.06089212e-01
      -5.35613634e-02 -4.39204499e-02 6.23869114e-02 8.16605464e-02
      3.86853404e-02 -1.23983086e-03 1.06092468e-01 -1.84660796e-02
      -4.58635539e-02 2.58055001e-01 -2.45590899e-02 -4.17708270e-02
      -1.93299979e-01 2.10438929e-02 -8.57574791e-02 -4.20238636e-02
      2.12174486e-02 9.22629759e-02 -4.00762223e-02 9.42510292e-02
      1.06549067e-02 -2.42102817e-02 -2.07238104e-02 5.84592484e-02
      -4.33856435e-03 -6.81823567e-02 -1.33705318e-01 -2.13540703e-01
      4.39307243e-02 4.39711958e-02 -1.26916036e-01 -9.69623309e-03
      5.41719273e-02 8.09206888e-02 1.14962049e-01 2.72498075e-02
      -5.72418533e-02 -1.95436865e-01 -1.22386841e-02 9.19100791e-02
      -8.75416994e-02 -9.60778370e-02 9.30792764e-02 -1.16616972e-02
      -1.29656613e-01 3.83487307e-02 -7.54663572e-02 -2.63339374e-02
      -1.26761356e-02 -4.85124066e-02 -1.74880028e-02 -5.68301380e-02
      -1.19407102e-01 -9.70696937e-03 -4.00869586e-02 1.49558261e-01
      -1.02615230e-01 1.89088229e-02 1.01636222e-03 -1.78268611e-01
      -1.56933889e-01 6.35267794e-02 2.46741958e-02 6.93587437e-02
      -1.49362907e-01 -5.08777052e-02 1.56881455e-02 1.04420915e-01
      6.17774054e-02 1.09380838e-02 6.67630583e-02 -1.32513419e-01
      2.01800875e-02 1.80345729e-01 -1.58499286e-01 -1.02881618e-01
      2.07190926e-04 -8.94642845e-02 -2.38634516e-02 7.18256980e-02
      1.00696199e-01 6.60772249e-03 -2.19154842e-02 -1.79050118e-01
      1.64800398e-02 8.09530169e-02 -1.80690870e-01 -6.84489012e-02
      -4.02953438e-02 -7.20674023e-02 -1.52511775e-01 -1.22733258e-01
      2.62321770e-01 7.48894438e-02 1.43868431e-01 3.47912647e-02
      -6.63150698e-02 -4.29555625e-02 -1.53664397e-02 -6.64346218e-02
      -3.58537547e-02 9.55165774e-02 -5.99011071e-02 9.17308927e-02
      -3.86254936e-02 2.86561586e-02 1.72600765e-02 -1.21615734e-02
      1.20468006e-01 2.87709802e-01 -4.13599163e-02 -1.90771267e-01
      1.99141696e-01 -8.23016465e-03 -7.20287710e-02 -1.13330446e-01
      1.07784837e-01 -1.00457579e-01 5.75774908e-02 -9.65874270e-03
      -4.88182306e-02 -1.06253862e-01 4.56849784e-02 8.59460910e-04
      -2.78623868e-02 -1.90226752e-02 -9.56105068e-02 1.09258778e-01
      -1.10590272e-01 3.47400345e-02 1.63153738e-01 2.51265258e-01
      2.18554139e-02 -1.10471942e-01 2.18391046e-02 4.32305448e-02
      3.19970250e-02 -1.41322643e-01 -1.50824532e-01 4.32235859e-02
      -1.54639408e-01 9.96142700e-02 4.81159650e-02 1.24018632e-01
      -1.39679089e-01 -3.92761230e-02 -5.20684309e-02 1.01520680e-01
      1.97699219e-02 -1.64460912e-01 -8.94814730e-02 -4.24130671e-02
      -4.69980687e-02 2.25914344e-01 9.55150574e-02 -1.17192887e-01
      -1.07073532e-02 -7.43662566e-02 8.60560611e-02 1.85426883e-02
      -7.61693791e-02 1.00390412e-01 3.39716114e-02 -8.45686570e-02
      6.82470053e-02 6.76449090e-02 -3.98207083e-02 1.84595771e-02
      4.67912741e-02 6.02190904e-02 -7.59472549e-02 -3.16063799e-02
      -1.28219873e-01 -1.01200111e-01 5.14880829e-02 -1.30277589e-01
      5.62986583e-02 -1.33052453e-01 -1.63032085e-01 1.16084300e-01
      4.87234257e-02 1.04829311e-01 1.29665792e-01 3.42811719e-02
      -1.61256924e-01 4.92409691e-02 1.23520680e-01 6.59343749e-02
      -5.58567159e-02 -1.47257507e-01 1.19993929e-02 -7.00636283e-02</_></support_vectors>
  <decision_functions>
    <_>
      <sv_count>1</sv_count>
      <rho>1.5656482050184189e-01</rho>
      <alpha>
        1.</alpha></_></decision_functions></my_svm>
</opencv_storage>
