<?xml version="1.0"?>
<opencv_storage>
<my_svm type_id="opencv-ml-svm">
  <svm_type>EPS_SVR</svm_type>
  <kernel><type>LINEAR</type></kernel>
  <C>1.</C>
  <p>1.0000000000000001e-01</p>
  <term_criteria><epsilon>1.0000000474974513e-03</epsilon>
    <iterations>1000</iterations></term_criteria>
  <var_all>1764</var_all>
  <var_count>1764</var_count>
  <sv_total>1</sv_total>
  <support_vectors>
    <_>
      -2.67278720e-02 4.68800440e-02 -3.95667925e-03 -8.74337256e-02
      4.56320681e-02 -5.71455583e-02 5.47548272e-02 1.68083340e-01
      5.77937514e-02 -4.82542180e-02 1.94861609e-02 -7.34055787e-02
      -9.95924324e-02 -1.10055096e-01 -1.46279559e-02 4.36017998e-02
      9.69344750e-02 5.44899255e-02 -6.13385774e-02 -1.30523443e-02
      3.50100687e-03 -4.52098716e-03 1.28635615e-01 -5.52780181e-02
      1.03121949e-02 5.65647706e-02 1.11525491e-01 -7.46963620e-02
      -3.69919129e-02 -5.89840785e-02 -1.50444778e-02 -1.18974619e-01
      3.93353682e-03 1.90005340e-02 3.80765907e-02 8.26220140e-02
      -4.05067727e-02 2.59284433e-02 -3.23564932e-03 2.42068078e-02
      -1.33814383e-02 -2.76542976e-02 1.59657262e-02 9.51296985e-02
      9.75156277e-02 5.63432649e-03 1.60382856e-02 2.72110719e-02
      4.41557579e-02 -1.08657181e-02 -1.42319277e-02 3.52497473e-02
      4.45120558e-02 1.14258612e-02 -7.22929314e-02 -1.53364083e-02
      -1.25969946e-02 1.43516692e-04 1.05211176e-02 4.34471108e-02
      3.51292044e-02 3.81484777e-02 3.08486708e-02 -2.36065909e-02
      -5.63405268e-02 -3.08198854e-02 -1.40489694e-02 -6.14447482e-02
      3.09591070e-02 3.17299063e-03 -2.70597786e-02 -3.77585664e-02
      -2.68797632e-02 2.73444261e-02 -1.21483523e-02 1.38269458e-02
      -3.41721140e-02 -1.75630003e-02 6.96896985e-02 9.62539166e-02
      2.48259995e-02 -1.67626739e-02 -4.86576988e-04 -3.36764613e-03
      2.79598739e-02 -7.94928148e-03 -6.87601790e-02 4.86923493e-02
      8.07704702e-02 1.74878761e-02 -5.82130402e-02 -5.98376580e-02
      -1.78887490e-02 -5.11085847e-03 -1.11718103e-02 8.63030404e-02
      2.67642736e-02 1.89125780e-02 -6.62487149e-02 2.71533113e-02
      -3.22699286e-02 9.16986912e-03 -1.99023224e-02 9.00575775e-04
      1.80559422e-04 -5.14422252e-04 1.56895574e-02 -1.47957141e-02
      -2.35517602e-02 4.02145833e-03 5.93448756e-04 1.78681861e-03
      3.91396042e-03 -2.32518092e-02 3.00658494e-02 2.77764518e-02
      3.11872624e-02 -9.73114278e-03 -2.82759387e-02 -7.57998526e-02
      -3.94068472e-02 2.96741426e-02 3.19281383e-03 4.98197563e-02
      6.02626316e-02 2.85565052e-02 2.96093356e-02 4.31008823e-03
      -7.71528203e-03 -1.52993221e-02 2.17411518e-02 -5.35959676e-02
      -7.21264107e-04 4.09797207e-02 5.55126704e-02 -3.76933403e-02
      -9.40101594e-02 -8.68710726e-02 -7.54779205e-02 3.10879685e-02
      2.94044334e-02 3.29986252e-02 1.67912412e-02 2.26989534e-04
      -8.04304481e-02 -7.86831379e-02 -5.21894582e-02 -6.27317801e-02
      -3.16694900e-02 -3.77449729e-02 1.19376956e-02 2.07405183e-02
      2.64812130e-02 -7.51185864e-02 -5.64659536e-02 3.69251370e-02
      -1.37231490e-02 -8.29996727e-03 -1.16474750e-02 6.68279901e-02
      7.50169307e-02 -1.01229865e-02 -6.50528818e-02 -8.78804848e-02
      -5.97646199e-02 -6.18964732e-02 -6.36039674e-02 -3.59681733e-02
      7.42353220e-03 2.29348298e-02 -4.72296029e-02 -4.31519118e-04
      -4.49724197e-02 -4.49278466e-02 -6.26712069e-02 -9.10363346e-02
      5.57604106e-03 1.01718098e-01 5.11076562e-02 6.19151257e-02
      -9.83607396e-02 -5.82328774e-02 1.81359611e-03 -1.50215710e-02
      -4.53480221e-02 -3.25889140e-02 7.01127052e-02 4.17061150e-02
      -4.38917205e-02 -8.22757259e-02 -5.08292625e-03 2.44403575e-02
      5.10820225e-02 -1.45082921e-02 3.04173790e-02 7.79494792e-02
      2.25855466e-02 -2.82739997e-02 -6.13001771e-02 -1.18717045e-01
      -5.34699336e-02 -7.93462470e-02 -1.30057871e-01 2.78601535e-02
      7.67972991e-02 2.49435157e-02 2.41466090e-02 -6.53146859e-03
      -6.15456961e-02 2.54176906e-04 3.16719315e-03 -6.56014457e-02
      7.32345181e-03 2.50642910e-03 -1.46981310e-02 -3.04427166e-02
      -9.81547534e-02 1.73963904e-02 -1.33100841e-02 2.14769114e-02
      -6.57204241e-02 -2.84533296e-02 8.88407789e-03 2.01062690e-02
      -8.48958567e-02 1.05854971e-02 2.25441735e-02 -1.49967764e-02
      4.01215144e-02 1.12681679e-01 1.90977100e-02 3.70929651e-02
      5.24442531e-02 -1.56523082e-02 -5.24611436e-02 -1.70127694e-02
      -2.52440535e-02 -5.72970929e-03 -1.00287847e-01 2.89482623e-03
      1.90713294e-02 1.49192875e-02 -6.78489953e-02 -4.10733782e-02
      -3.54227237e-02 -5.38103692e-02 3.30814645e-02 7.33631775e-02
      8.92613083e-02 6.63033873e-02 5.00179082e-02 -2.15906259e-02
      4.70059877e-03 -4.14438248e-02 -3.42132710e-02 -2.76775993e-02
      1.62956178e-01 -2.91845873e-02 2.63225883e-02 8.68614241e-02
      7.48758689e-02 -3.66442017e-02 -5.44347800e-03 -3.20352837e-02
      -3.63096073e-02 -1.14309542e-01 -2.79161371e-02 2.13973057e-02
      -3.63469776e-03 4.21303995e-02 2.28286758e-02 -5.49756438e-02
      -8.39132220e-02 -5.11403643e-02 1.27759203e-01 -3.24524380e-02
      5.74599504e-02 9.61490571e-02 5.18109649e-02 -6.08821847e-02
      -3.12193613e-02 -3.65607962e-02 -6.77660108e-02 -1.66977227e-01
      -3.11357584e-02 4.76932600e-02 4.28549051e-02 -2.67180894e-02
      -7.68759847e-02 2.20009182e-02 5.28034521e-03 1.02494815e-02
      1.93307977e-02 4.83996123e-02 4.29833196e-02 8.37730318e-02
      4.16311845e-02 -4.77167368e-02 -4.62164618e-02 -6.47501573e-02
      -1.91865731e-02 4.21669111e-02 5.58317117e-02 -3.11402492e-02
      -3.47163528e-02 -2.90420987e-02 -3.47966030e-02 2.56371759e-02
      1.00828148e-01 5.19113652e-02 -1.86041854e-02 5.63328043e-02
      7.02748150e-02 3.71227302e-02 -2.72107404e-02 2.51816120e-02
      5.79489544e-02 1.88175105e-02 -1.47492364e-02 -1.31574031e-02
      -4.78904491e-04 -2.70116739e-02 1.59292389e-02 3.72207956e-03
      -6.36261795e-03 -7.20754638e-02 -8.65180194e-02 -4.82602082e-02
      -2.69334973e-03 7.17663169e-02 6.23981841e-02 4.73447032e-02
      -1.88689679e-03 1.96540020e-02 -4.83457968e-02 -7.01064020e-02
      -7.14610443e-02 -5.17827645e-02 1.48824870e-03 1.95086356e-02
      3.68904322e-02 1.38390902e-02 2.71256138e-02 -4.20752633e-03
      -2.07815487e-02 -4.47992906e-02 -2.52410546e-02 -8.97542946e-03
      3.70454155e-02 2.62413193e-02 1.67919789e-02 -1.85575057e-02
      -6.90268427e-02 -3.91989760e-02 -5.16558476e-02 -1.93517320e-02
      1.84779670e-02 6.23424491e-03 -1.32003305e-02 3.07183005e-02
      3.07016950e-02 1.47392210e-02 -1.85348727e-02 -3.24945338e-02
      1.29862828e-02 -8.69703516e-02 -2.34823897e-02 6.22416176e-02
      8.41699168e-02 3.22910100e-02 3.18425405e-03 -5.33918105e-03
      -1.70874465e-02 9.77911334e-03 2.39866413e-02 1.10820653e-02
      5.24141043e-02 3.82207446e-02 1.17360288e-02 3.42112570e-03
      -1.26989931e-03 -4.90203220e-03 1.44596966e-02 -5.46202101e-02
      6.67308038e-03 -3.14230025e-02 4.73454259e-02 2.34487448e-02
      3.29545923e-02 3.59020685e-03 -4.80495133e-02 -6.41779974e-02
      -6.28036354e-03 -2.24633305e-03 -1.39756119e-02 1.17567787e-02
      4.77712322e-03 8.27231258e-03 2.52235821e-03 -4.63337637e-02
      -6.33835644e-02 5.02651222e-02 2.11592931e-02 7.66265616e-02
      2.27556890e-03 2.12160293e-02 3.84270656e-03 -2.50801574e-02
      -9.98736080e-03 -4.12677974e-03 1.91138964e-02 6.07510693e-02
      6.51039779e-02 5.58692813e-02 -4.97915559e-02 1.98584627e-02
      -2.40513273e-02 -7.03384504e-02 -5.72692789e-02 1.26933996e-02
      3.37605961e-02 1.62927005e-02 -6.53385893e-02 -2.66437251e-02
      5.67651428e-02 8.02552775e-02 4.64831404e-02 4.74997945e-02
      -1.99584961e-02 4.76103090e-02 3.81205529e-02 -7.49117695e-03
      -5.74648939e-02 -4.07411084e-02 -4.32858616e-02 -5.21369167e-02
      -3.37996408e-02 9.71715301e-02 9.48630273e-02 3.30707319e-02
      2.76750550e-02 -1.60670571e-03 1.79880727e-02 -7.77109584e-04
      -4.08423729e-02 4.63278629e-02 4.58990633e-02 7.59596154e-02
      4.09564115e-02 -3.68330739e-02 -7.65818730e-02 -1.07444394e-02
      -2.26888880e-02 -6.68197870e-02 -3.99746783e-02 -3.46759669e-02
      6.68586884e-03 -1.21367816e-02 -9.44757685e-02 -6.58135936e-02
      -1.89185049e-02 -4.55793254e-02 -3.92420068e-02 -6.48393901e-03
      3.34914364e-02 9.93698239e-02 1.37811899e-02 -4.74389456e-02
      -2.07339004e-02 6.30899100e-03 -1.42894452e-02 -6.95790201e-02
      -9.94166061e-02 1.50531819e-02 2.24608406e-02 5.71509227e-02
      -5.60579486e-02 -4.68985513e-02 -2.29755584e-02 4.08050232e-03
      -2.20164494e-03 6.02526627e-02 1.00652717e-01 8.53411108e-02
      4.80843894e-02 -5.07187396e-02 -8.56747851e-02 1.32217323e-02
      -1.41118914e-02 -5.93814440e-02 -1.09159127e-01 -1.48021914e-02
      2.51061320e-02 1.71227828e-02 -7.77413100e-02 -7.65339583e-02
      6.39192462e-02 5.57332970e-02 -5.89948148e-03 1.17656581e-01
      -1.66057365e-03 1.47735430e-02 6.50229007e-02 -9.23098177e-02
      1.62138492e-02 -5.62661216e-02 -9.47693139e-02 -6.39439300e-02
      1.89197659e-01 6.95862323e-02 6.66871369e-02 4.26884331e-02
      2.88569480e-02 -3.29417400e-02 -3.35521512e-02 -5.49917556e-02
      -6.05370104e-02 -1.49613738e-01 -3.30517180e-02 -1.51519570e-02
      -2.68280022e-02 -1.63119920e-02 -4.22759801e-02 -8.15456733e-03
      -4.59690765e-02 -3.71345296e-03 1.90896571e-01 5.06172702e-02
      6.11548647e-02 4.21743616e-02 -8.74139462e-03 -5.82489371e-02
      5.26252342e-03 -6.29484057e-02 -1.87151004e-02 -8.40122998e-02
      -7.90393911e-03 -3.13972831e-02 -1.18940268e-02 -2.87266839e-02
      3.63195278e-02 5.38444668e-02 7.27998912e-02 7.94016868e-02
      -6.80334633e-04 6.16717748e-02 2.43110042e-02 2.44058892e-02
      1.31439120e-02 5.53731620e-02 6.57627508e-02 1.22323101e-02
      1.27151497e-02 -4.02683429e-02 8.22381023e-03 -2.00739596e-03
      2.93870885e-02 -8.52718391e-03 2.16167886e-02 4.32956517e-02
      3.35564977e-03 3.22214849e-02 3.10743563e-02 -8.94982019e-04
      4.85962583e-03 4.40811552e-02 1.74574256e-02 1.61641650e-02
      7.34668411e-03 -3.82226184e-02 6.05402701e-03 2.59961258e-03
      8.10074434e-03 -8.72139912e-03 -1.65213533e-02 -2.99220206e-04
      7.81993195e-02 2.87508778e-02 -1.42245749e-02 4.34295711e-04
      -1.38624189e-02 -1.35874236e-02 -5.35233365e-03 6.36420250e-02
      7.92436153e-02 -3.35458992e-03 -2.36465372e-02 -3.70560028e-02
      1.32132759e-02 2.99666598e-02 -5.14664268e-03 -1.57682840e-02
      -3.40809152e-02 1.70137212e-02 3.31648439e-02 2.17978638e-02
      1.62578095e-02 -1.95566565e-02 4.61961841e-03 -2.27404311e-02
      -2.08791140e-02 1.72059722e-02 4.32286747e-02 3.15859802e-02
      -1.09499856e-03 2.37257802e-04 -4.70136739e-02 -1.84184220e-02
      -1.93485469e-02 -8.94398708e-03 1.56670567e-02 4.65364307e-02
      5.65497344e-03 5.86459637e-02 -8.29905272e-03 1.23057803e-02
      -6.28125446e-04 -5.27945943e-02 4.55645891e-03 -2.19151620e-02
      4.16252390e-02 -9.58605483e-03 3.80989872e-02 -1.20911254e-02
      -5.11933826e-02 -3.58197317e-02 9.93080623e-03 1.24129197e-02
      3.51567008e-02 1.97568852e-02 1.20284250e-02 1.68669950e-02
      -3.85003053e-02 -4.78534289e-02 1.52523136e-02 4.40304680e-03
      2.23439932e-02 3.74830374e-03 4.61147213e-03 7.96229765e-03
      -1.25937248e-02 -1.81443468e-02 -2.75617326e-03 1.79975051e-02
      1.43017871e-02 2.68876478e-02 1.26206677e-03 2.20850557e-02
      -3.49350534e-02 -8.19451828e-03 -9.65090692e-02 -6.37112707e-02
      -5.54684401e-02 9.38036107e-03 5.44144027e-02 3.70646194e-02
      -1.28654821e-03 4.10550721e-02 3.07932533e-02 2.40273355e-03
      7.95809552e-03 3.57515551e-02 -2.19866093e-02 7.14966580e-02
      3.58803310e-02 2.44766213e-02 -3.17868665e-02 -4.02897373e-02
      -6.34238124e-02 -5.96412830e-02 -1.67100132e-02 -7.25192437e-03
      2.59649344e-02 -1.32492865e-02 2.83870124e-03 3.90593559e-02
      1.07898004e-02 -3.55012268e-02 3.03762350e-02 7.01519847e-02
      -2.38294490e-02 -2.99405376e-03 8.67686141e-03 2.47431099e-02
      -4.10501063e-02 -7.78569747e-03 -2.47294642e-03 -6.88350573e-02
      -3.00225094e-02 -3.70780267e-02 -3.63690853e-02 -2.07001306e-02
      -6.48733228e-02 -3.90187204e-02 -1.41098229e-02 1.97583232e-02
      -2.29771789e-02 6.01788647e-02 3.90228108e-02 3.20506804e-02
      8.86180066e-03 -6.21110238e-02 1.41848773e-02 2.00141463e-02
      2.19197460e-02 4.83969459e-03 -4.80282679e-02 -3.12071051e-02
      -1.17215747e-02 -3.87854464e-02 -2.45263930e-02 1.82327460e-02
      1.26019984e-01 1.40266269e-01 1.84530765e-02 2.18721051e-02
      -3.39380465e-02 -5.00269346e-02 -7.22085778e-03 -7.53984079e-02
      -4.11770865e-02 5.95021285e-02 1.76316295e-02 -3.24840508e-02
      -1.32674482e-02 -2.77212951e-02 5.31652586e-05 -1.50841000e-02
      -6.23783022e-02 -2.27730032e-02 8.33476782e-02 1.02445327e-01
      -1.00968797e-02 1.04816735e-01 2.12939810e-02 2.86721415e-03
      5.44940531e-02 -5.61558120e-02 7.10132858e-03 3.92830893e-02
      3.84561047e-02 -5.95836388e-03 -5.81885539e-02 -7.42489398e-02
      -3.19192931e-02 -4.92936894e-02 -7.44548887e-02 -4.32795845e-02
      4.51808190e-03 5.53231649e-02 -6.18260447e-03 9.65278670e-02
      1.65297054e-02 -9.89029836e-03 -1.81382410e-02 -5.26242368e-02
      -3.40935476e-02 5.79022989e-02 2.81248391e-02 1.54152382e-02
      1.43749937e-01 1.37856491e-02 4.81593199e-02 3.04594599e-02
      -2.54373867e-02 -3.53796296e-02 6.08106563e-03 8.52655433e-03
      4.35353145e-02 -1.11519553e-01 -5.95829189e-02 -5.63426726e-02
      -2.12036390e-02 -9.72319543e-02 2.84291264e-02 6.24103770e-02
      8.23551789e-03 -2.53778659e-02 9.48849097e-02 -4.41679955e-02
      -4.68535256e-03 -6.88475324e-03 -2.48162393e-02 -5.10839792e-03
      1.61637403e-02 -1.73547361e-02 -5.79252047e-03 -1.04420707e-01
      -6.85661882e-02 -4.24211845e-02 -4.20604870e-02 -5.69969229e-02
      5.10097556e-02 7.55896866e-02 6.17601909e-02 5.27443588e-02
      2.26221420e-02 -2.85627078e-02 -1.04492279e-02 4.30301167e-02
      -5.88898733e-03 2.72744354e-02 7.89039396e-03 -2.41184514e-02
      2.26310249e-02 2.27870848e-02 4.58432585e-02 1.47358766e-02
      2.87152715e-02 -3.98242883e-02 9.96864438e-02 8.94409791e-02
      8.87861773e-02 4.91978638e-02 -2.45366199e-03 1.92745626e-02
      -4.70457375e-02 5.22846617e-02 6.07212596e-02 -1.79209039e-02
      8.33859947e-03 2.54597161e-02 -3.02415639e-02 1.84898991e-02
      2.84346230e-02 -3.08670290e-02 -2.65151970e-02 8.07630946e-04
      2.43465528e-02 1.46543635e-02 1.23086888e-02 1.10792713e-02
      1.50093045e-02 4.83556315e-02 4.61281054e-02 4.54242118e-02
      3.50277126e-02 3.35531533e-02 -1.39728782e-03 1.08606145e-02
      -3.77423503e-02 -3.49656045e-02 -4.29577567e-02 -2.09631375e-03
      4.35622446e-02 3.29296268e-03 5.71552850e-03 3.34218554e-02
      2.60777473e-02 1.88062899e-02 5.51024005e-02 4.44640443e-02
      6.05315715e-02 1.07914247e-02 5.30847386e-02 3.06775030e-02
      -6.21933043e-02 -6.66237772e-02 -1.04878945e-02 1.85690280e-02
      -3.56708467e-02 1.72336288e-02 7.48221129e-02 5.89445531e-02
      1.86390355e-02 -2.97597349e-02 -2.60208324e-02 2.48852558e-03
      8.34827591e-03 -4.12856862e-02 -2.59940717e-02 1.34044243e-02
      -1.62809808e-02 -3.14799766e-03 -5.81018478e-02 1.20106833e-02
      3.86648029e-02 6.40310124e-02 3.74137796e-02 6.33303747e-02
      5.50873429e-02 1.83188114e-02 1.62614845e-02 -9.47459787e-02
      -1.12196757e-02 3.05655282e-02 4.78705913e-02 -5.46990968e-02
      1.42136104e-02 3.77790481e-02 1.06983138e-02 -7.76337693e-03
      -4.50684354e-02 3.08106672e-02 4.12732512e-02 9.36484858e-02
      8.19205027e-03 1.10726230e-01 2.63744853e-02 2.42766514e-02
      -6.40124036e-03 -3.91594134e-02 5.34373410e-02 -4.72967476e-02
      -2.63683312e-02 -2.03759037e-02 -3.15434206e-03 8.78769811e-03
      2.56767292e-02 5.65910637e-02 2.53682509e-02 4.98913452e-02
      3.47234383e-02 3.85967679e-02 1.74826700e-02 -4.24389765e-02
      -7.01334551e-02 -1.17108105e-02 1.26585420e-02 1.14509102e-03
      7.60151818e-02 2.23532747e-02 6.82655871e-02 -3.37931626e-02
      7.23077580e-02 -7.62171578e-03 3.62496302e-02 1.41552659e-02
      9.33633372e-02 9.49316248e-02 2.09697392e-02 9.78965089e-02
      5.45645021e-02 5.57888635e-02 -2.05375496e-02 -5.47646778e-03
      3.50254402e-02 2.38655861e-02 3.43381576e-02 5.56119345e-03
      1.47028267e-02 -4.10235114e-02 -3.17810662e-02 -6.04090169e-02
      -1.18453111e-02 1.06763151e-02 4.75835167e-02 9.13786441e-02
      6.73761172e-03 3.07078101e-02 -1.86184049e-02 -2.05666423e-02
      -7.04734027e-03 -4.63393927e-02 -2.33728029e-02 -1.42401196e-02
      3.01628802e-02 -2.12912876e-02 2.37652520e-03 -1.18096517e-02
      -1.50061408e-02 -1.99539643e-02 -3.61394919e-02 -2.89841294e-02
      -6.69150278e-02 -3.33312736e-03 7.34253740e-03 7.02313557e-02
      2.78538037e-02 2.96633448e-02 2.07049549e-02 -2.04945058e-02
      -5.69936633e-02 -1.32880108e-02 1.92204397e-02 -1.16676176e-02
      -2.66506281e-02 -5.59397973e-02 -2.51537226e-02 -5.51107526e-02
      -5.96042387e-02 -7.76062757e-02 9.44082066e-03 6.77486882e-02
      7.46583939e-02 7.66040087e-02 -2.60295905e-02 -4.13686410e-02
      -2.11920701e-02 -5.98969273e-02 -4.86490689e-02 -1.48644317e-02
      -9.04915913e-04 -1.60348024e-02 3.53709757e-02 -6.15489185e-02
      -2.67771096e-03 -7.29971826e-02 -4.46934998e-03 -7.29068369e-02
      6.43411949e-02 8.38885978e-02 1.21817531e-04 1.00783229e-01
      -4.98316437e-03 -3.36534008e-02 -2.96384245e-02 -5.18228747e-02
      1.14630107e-02 1.71979405e-02 -2.57593188e-02 -2.77808439e-02
      1.04116023e-01 1.32831894e-02 -3.94404912e-03 -9.67238843e-02
      -5.10757342e-02 -4.05771025e-02 -4.05297540e-02 -5.47903776e-02
      -4.81310114e-02 -1.29471332e-01 -8.98319646e-04 -3.13919485e-02
      -2.90939026e-02 -4.45373096e-02 -4.60059866e-02 -1.08424872e-02
      1.20776743e-02 -8.85151140e-03 7.47420266e-02 4.19252180e-03
      -4.92901504e-02 -1.28449500e-01 -9.36838388e-02 -1.18796252e-01
      -2.10888460e-02 -2.48750951e-02 -6.60221726e-02 -5.98808862e-02
      1.56355668e-02 -5.68208434e-02 -7.60413855e-02 -8.78008604e-02
      1.28121739e-02 3.28355767e-02 6.89839795e-02 8.46336111e-02
      2.83995159e-02 7.33138248e-02 -5.73701086e-03 4.12156805e-02
      6.37814999e-02 -9.41808000e-02 1.31773716e-02 4.17260416e-02
      1.84501205e-02 5.85614238e-03 -1.75781287e-02 -7.25324750e-02
      -5.39215654e-02 -1.36246039e-02 -4.45176810e-02 4.89374660e-02
      7.21414089e-02 5.50974868e-02 3.39965709e-02 6.00311011e-02
      4.57435474e-02 2.92276815e-02 1.26433810e-02 -7.54794106e-02
      -3.99386734e-02 1.56441666e-02 -1.61509365e-02 -2.05086712e-02
      -6.43143654e-02 -6.02423027e-03 -2.79523972e-02 -3.89153585e-02
      -7.30378227e-03 1.97809525e-02 4.64009633e-03 2.78828177e-03
      2.13261358e-02 -2.19731219e-02 -2.04957724e-02 -3.53398733e-02
      3.40556651e-02 -6.51078438e-03 -4.05096682e-03 -2.63554100e-02
      -6.95671747e-03 3.47884558e-02 -4.21719672e-03 -1.16823884e-02
      2.26497203e-02 3.83605845e-02 1.06525179e-02 -1.00055085e-02
      5.02258465e-02 -1.17179621e-02 -4.01535165e-03 -6.59874529e-02
      -2.98019182e-02 -8.04992486e-03 3.83158922e-02 -3.68740447e-02
      -1.12771867e-02 1.62863117e-02 -2.33312808e-02 2.03916710e-02
      2.81977467e-03 1.99445747e-02 4.18299325e-02 9.52457711e-02
      -5.94691327e-03 -5.34928478e-02 -5.17194420e-02 -3.47092599e-02
      2.83215884e-02 -1.84980948e-02 1.29020270e-02 -2.10302901e-02
      -1.59456525e-02 6.84530288e-03 1.10863065e-02 3.12794521e-02
      3.68897729e-02 6.04586452e-02 -3.98943387e-02 6.08665310e-02
      1.50816664e-02 1.03346501e-02 -4.04301612e-03 3.66971008e-02
      -1.45621952e-02 9.31194890e-03 7.25936983e-03 -3.37157287e-02
      -1.21287676e-02 -7.01538101e-02 1.93613749e-02 3.67151871e-02
      1.11308478e-01 9.24284458e-02 7.76247755e-02 1.87890772e-02
      -2.76679434e-02 7.20957480e-03 -2.94761173e-02 9.18481406e-03
      7.26542296e-03 -1.78858154e-02 2.40110625e-02 1.28251538e-02
      5.65483123e-02 -1.84596721e-02 2.11383719e-02 -4.58866358e-02
      6.27280958e-03 -1.48702310e-02 -1.85800735e-02 -4.47008871e-02
      -2.85696946e-02 4.13869321e-02 3.12520079e-02 4.51632366e-02
      2.86285374e-02 1.44889560e-02 -2.01188549e-02 -5.15885325e-03
      3.74031700e-02 -1.17861014e-02 4.69214097e-02 9.33431368e-03
      3.48169841e-02 4.17949557e-02 -1.66418310e-02 3.03188693e-02
      -1.08217396e-01 -8.41640383e-02 -1.24502776e-03 4.20018882e-02
      2.92301811e-02 1.97071210e-03 3.92785706e-02 6.89316317e-02
      -4.18753251e-02 -6.02348857e-02 -8.85450747e-03 -3.36995162e-02
      2.80311401e-03 1.54027008e-02 -5.24622621e-03 6.57816157e-02
      4.14328724e-02 6.75344886e-03 -3.17052267e-02 -2.50097904e-02
      -1.42527176e-02 1.44298105e-02 1.94256455e-02 3.19515802e-02
      1.10444777e-01 1.84725672e-02 -6.97468466e-04 -3.49037275e-02
      -6.26703724e-02 2.83221416e-02 2.26535350e-02 -7.87269231e-03
      -6.13418920e-03 5.59088178e-02 7.17863515e-02 -1.59842726e-02
      -1.40266307e-03 3.33047174e-02 -1.86179429e-02 -7.97495246e-03
      -2.60873549e-02 8.65386054e-03 2.46300679e-02 -1.04132649e-02
      2.26307590e-03 4.12590764e-02 5.97608602e-03 -1.05942860e-02
      -7.15241255e-03 -4.07295339e-02 -1.62817836e-02 -4.17729653e-02
      1.66848432e-02 -3.59521769e-02 2.51197089e-02 1.23848459e-02
      6.83949143e-03 1.19778447e-01 4.19280753e-02 -3.20860632e-02
      -4.29014117e-02 -2.98704281e-02 1.85106378e-02 1.18479608e-02
      -3.30948178e-03 -6.59717945e-03 -6.36347309e-02 -8.04410055e-02
      -4.85420078e-02 -1.00931954e-02 -1.94812827e-02 1.31867127e-03
      -4.15644534e-02 4.40964401e-02 -1.25677763e-02 7.40500912e-02
      -1.89770274e-02 -2.57786084e-02 -1.69310533e-03 -2.87995092e-03
      -3.37091684e-02 1.81427523e-02 1.01514831e-01 5.94294816e-02
      4.39398624e-02 -4.88118753e-02 -7.80652612e-02 -8.86120051e-02
      -6.78270981e-02 -8.44470039e-02 1.76494587e-02 -3.58232744e-02
      3.74916638e-03 -1.10921949e-01 -4.47252952e-02 -1.84025206e-02
      -6.13774247e-02 -1.82364918e-02 2.80575920e-02 -2.61658765e-02
      9.23879668e-02 2.47777738e-02 1.10426083e-01 -6.77193254e-02
      -7.95919746e-02 -7.95930997e-03 4.94693927e-02 -8.12543556e-02
      -6.71188757e-02 -3.26927379e-02 -4.13515046e-02 -9.82525349e-02
      -2.45740674e-02 7.29882671e-03 8.69421405e-04 -3.69364433e-02
      2.34948117e-02 3.16285491e-02 -2.30729077e-02 -2.61997916e-02
      -2.89912373e-02 -2.27149148e-02 4.29887064e-02 4.82834689e-02
      1.43451439e-02 2.82305777e-02 2.29732674e-02 -4.47028643e-03
      -4.03808914e-02 -6.00368343e-02 -1.14705637e-01 -2.05957964e-02
      -2.65724342e-02 -1.55328820e-02 3.35524194e-02 2.02994645e-02
      1.70975029e-02 -1.51713751e-02 4.99494094e-03 1.79580096e-02
      7.20780566e-02 4.27867435e-02 3.76748256e-02 5.46586737e-02
      4.80729640e-02 2.52128001e-02 -2.92670969e-02 1.58514772e-02
      -8.65415018e-03 -1.24545237e-02 -2.90146265e-02 -1.08682988e-02
      5.96539024e-03 1.47689797e-03 3.99819277e-02 -1.92119945e-02
      -5.84906861e-02 -5.09133041e-02 -1.20725714e-01 -3.55327222e-03
      1.81706399e-02 -1.83670968e-02 -1.57319792e-02 -1.51815899e-02
      -2.86425073e-02 -5.16806282e-02 -9.82992444e-03 -4.56691198e-02
      -1.20036295e-02 2.43122205e-02 2.28552036e-02 2.18421966e-02
      -8.07251036e-03 -1.20432973e-02 -1.63674168e-02 -3.16695124e-02
      -4.48145196e-02 2.68367454e-02 3.97596844e-02 7.73079023e-02
      4.06759642e-02 -3.06922700e-02 3.55042657e-03 8.40053149e-03
      -8.92232079e-03 -2.09040176e-02 -2.74499529e-03 2.83689555e-02
      4.44051251e-03 2.91720349e-02 -2.63776239e-02 -3.86339519e-03
      8.42602924e-03 -3.15278843e-02 -2.91332249e-02 -5.88885807e-02
      1.91004947e-02 -1.97049193e-02 6.37794062e-02 5.79473190e-02
      -3.55359539e-03 3.16159450e-03 -9.48959682e-03 -2.75510978e-02
      -1.54053476e-02 -3.87639701e-02 3.63482609e-02 6.17089719e-02
      -1.16088009e-02 1.24377124e-02 -9.62251611e-03 -5.95475249e-02
      2.93053407e-03 1.10241845e-02 2.60839220e-02 8.21683928e-03
      -8.93623335e-04 5.96857853e-02 -9.51614231e-03 -4.30221260e-02
      -3.66471373e-02 1.10472096e-02 -3.56441736e-03 -2.44199280e-02
      -4.77543399e-02 5.00829564e-03 4.14480940e-02 -2.65418235e-02
      2.90115345e-02 3.31137106e-02 2.61025387e-03 1.38741816e-04
      -2.74232887e-02 -4.46979096e-03 -2.16714665e-02 -4.72985618e-02
      1.36314919e-02 5.90263195e-02 6.42505661e-02 4.27767187e-02
      -2.62169652e-02 -6.52502989e-03 4.21775877e-02 2.96521373e-03
      1.16574829e-02 -3.13274339e-02 -2.65322123e-02 -1.51632717e-02
      -1.53675321e-02 -5.38762137e-02 -3.75348106e-02 -5.04114777e-02
      4.78240140e-02 2.11076085e-02 -5.51742539e-02 3.13384198e-02
      3.33199054e-02 -2.88460840e-04 -1.55292517e-02 -1.49461497e-02
      -2.37329490e-02 -4.84192111e-02 -7.36768842e-02 -4.34700772e-02
      1.36341341e-02 -1.21074840e-02 1.47539070e-02 -1.82807259e-02
      1.87478680e-02 -5.64147606e-02 4.22024960e-03 5.70173152e-02
      -1.29353926e-02 1.64170023e-02 1.64414104e-02 -1.31334830e-02
      -1.57792047e-02 -1.01726167e-02 -7.47800842e-02 1.60335228e-02
      4.82015349e-02 -2.62303501e-02 7.08029792e-02 1.96092613e-02
      3.10434289e-02 2.35083867e-02 -2.07042620e-02 -4.08559218e-02
      -3.26782428e-02 2.63395179e-02 4.00830284e-02 4.84755356e-03
      6.80861063e-03 1.95423719e-02 4.00444083e-02 -7.49267116e-02
      -7.38041475e-03 2.40800790e-02 4.14473526e-02 3.84710841e-02
      -7.71074370e-02 -7.70680979e-02 -1.05872331e-02 6.54621869e-02
      1.49852065e-02 -2.32583657e-02 -1.91083942e-02 2.48096772e-02
      -5.36547825e-02 1.04273893e-02 3.60773853e-03 4.41364534e-02
      7.03541636e-02 3.76046784e-02 -5.68787158e-02 6.00758642e-02
      2.20684744e-02 1.82136446e-02 -6.56413063e-02 -2.65549286e-03
      7.85522982e-02 4.88516279e-02 -1.59689728e-02 -3.80906276e-02
      9.96096525e-03 4.04266901e-02 -4.09511440e-02 -1.79876462e-02
      -5.02835847e-02 3.52536477e-02 -4.30017989e-03 3.04099713e-02
      5.69482567e-03 1.76594444e-02 7.69490153e-02 -1.17125483e-02
      1.38227507e-01 -7.45585784e-02 -8.44249502e-02 -6.21478446e-02
      1.15565453e-02 -3.43534071e-03 -1.35210836e-02 5.26005821e-03
      -2.29519308e-02 -3.18269320e-02 2.51560891e-03 -4.29429151e-02
      -3.23844925e-02 -3.90914977e-02 2.30035391e-02 2.80284677e-02
      5.43956310e-02 1.27414670e-02 1.53960854e-01 -4.99587283e-02
      -6.30457997e-02 -6.96117356e-02 -9.24880616e-03 6.24496900e-02
      3.87458305e-04 7.04841781e-03 -7.43477000e-03 -4.11460064e-02
      -5.76169183e-03 -1.60570908e-02 -4.77000326e-02 -2.99076438e-02
      -3.56824920e-02 -3.64353284e-02 -8.36825639e-04 1.10541200e-02
      -6.75380155e-02 3.74563001e-02 1.80314332e-02 2.98111606e-02
      -8.88818130e-02 -1.96592715e-02 1.00156171e-02 1.52872782e-02
      -1.21396566e-02 -4.77009900e-02 -2.52362131e-03 1.40208716e-03
      -2.65735071e-02 -1.66739281e-02 -1.22085419e-02 2.82818004e-02
      7.18334019e-02 1.32524937e-01 3.65492329e-02 3.36719900e-02
      4.11413237e-02 2.43581571e-02 -5.77746257e-02 -3.13655995e-02
      5.44086918e-02 5.36327921e-02 6.36870712e-02 6.54335395e-02
      -1.25169726e-02 5.52301407e-02 4.63052318e-02 -2.30550189e-02
      -3.68142016e-02 -7.86943175e-03 -3.30268033e-03 -3.39684226e-02
      -2.26718113e-02 -8.05045292e-02 -7.91566223e-02 -8.91024806e-03
      -1.45115070e-02 -8.04583076e-03 -1.49339586e-02 -3.92542742e-02
      -4.67286333e-02 -2.93828789e-02 -8.63956809e-02 -9.14203078e-02
      -2.34568380e-02 -4.14949059e-02 2.06575170e-02 8.48721713e-02
      7.29202554e-02 1.16430037e-02 -1.44883469e-02 -1.04671177e-02
      -8.60537216e-03 3.61902528e-02 -2.80786511e-02 4.19128798e-02
      5.93030965e-03 1.70126818e-02 -4.38007936e-02 2.74047554e-02
      4.96945251e-03 -3.30921113e-02 2.27752998e-02 -8.67562275e-03
      -1.46708097e-02 -2.19494719e-02 -4.17481475e-02 -5.39985597e-02
      -1.03118971e-01 -8.02976415e-02 -5.64561896e-02 2.62138061e-02
      1.65765197e-03 6.76506106e-03 3.96572314e-02 2.16456167e-02
      -2.29773074e-02 -1.56419978e-01 -8.03893283e-02 -3.51051912e-02
      1.42263074e-03 -3.68383131e-03 5.34958281e-02 3.74432765e-02
      2.31933612e-02 3.54596414e-03 -1.36133768e-02 -1.58052929e-02
      -9.40024853e-03 -6.75657811e-03 -8.16234015e-03 -1.17018921e-02
      1.10801362e-01 5.93970157e-02 1.85253154e-02 -3.22640799e-02
      -3.84952836e-02 -3.90495956e-02 5.65756336e-02 -7.54827261e-03
      3.45025994e-02 -6.70724129e-03 -5.01991659e-02 -6.76189363e-02
      -1.00572072e-01 -8.92624035e-02 -3.73297445e-02 -2.53303871e-02
      2.81615444e-02 1.85714588e-02 4.09063548e-02 2.19844971e-02
      -7.13406801e-02 -5.26558869e-02 -9.22285318e-02 3.04415002e-02
      6.63584098e-03 6.28023222e-03 -1.48536144e-02 1.38145313e-01
      4.87666540e-02 -5.02543449e-02 -6.52983114e-02 -7.80414268e-02
      -1.75850578e-02 8.48628432e-02 7.77778262e-03 2.99794860e-02
      3.82583812e-02 3.02120182e-03 -5.27602155e-03 -3.24793793e-02
      -9.52862203e-02 -6.74312329e-03 3.34558189e-02 -1.61733758e-02
      -3.15252948e-03 5.08297160e-02 7.09014833e-02 1.73801333e-02
      1.64968218e-03 -3.99771743e-02 2.91487928e-02 2.29721852e-02
      -7.64486333e-03 -2.16591116e-02 -1.07706850e-02 4.83539142e-03
      5.48740774e-02 5.25904745e-02 1.06157514e-03 4.79801148e-02
      3.37212309e-02 -4.04479951e-02 2.61849482e-02 5.92026263e-02
      3.90016809e-02 3.73611152e-02 -3.64227369e-02 -4.24641883e-03
      -5.87293645e-03 -3.77717651e-02 -3.09286080e-02 5.08726621e-03
      -1.18553769e-02 3.19781452e-02 1.36988154e-02 7.23551214e-03
      -1.12125240e-02 1.17249405e-02 -6.36729896e-02 -5.78281730e-02
      -2.49625742e-02 2.47794706e-02 1.62704624e-02 1.33095635e-02
      -9.50899068e-03 5.40257879e-02 7.75901377e-02 -5.42698521e-03
      -1.16509013e-02 -2.66701356e-02 2.41895579e-02 5.67443520e-02
      -1.88310090e-02 5.29913278e-03 -5.57596721e-02 -5.08074043e-03
      -7.12752575e-03 8.98332801e-03 -3.86025980e-02 6.56116987e-03
      1.25446338e-02 -4.97111864e-02 2.38931570e-02 1.43611263e-02
      5.08244224e-02 -1.45841120e-02 -9.53214765e-02 -7.67731220e-02
      7.04809427e-02 3.19383480e-02 -6.39849994e-03 1.25434458e-01
      -1.61315724e-02 1.01417210e-02 -1.91704463e-02 -4.14793678e-02</_></support_vectors>
  <decision_functions>
    <_>
      <sv_count>1</sv_count>
      <rho>5.8785005097644960e-01</rho>
      <alpha>
        1.</alpha></_></decision_functions></my_svm>
</opencv_storage>
